~o
<STREAMINFO> 1 39
<VECSIZE> 39<NULLD><MFCC_E_D_A_C_K><DIAGC>
~v "varFloor1"
<VARIANCE> 39
 2.686276e+02 4.557810e+02 3.857961e+02 2.682895e+02 2.427188e+02 2.615873e+02 2.648404e+02 2.658266e+02 3.050256e+02 3.034653e+02 3.104058e+02 2.905340e+02 5.373621e-02 7.683063e+00 9.732147e+00 1.136175e+01 1.068020e+01 1.127052e+01 1.310090e+01 1.364410e+01 1.472222e+01 1.513169e+01 1.541293e+01 1.573303e+01 1.512272e+01 2.085058e-03 1.098494e+00 1.247842e+00 1.597667e+00 1.712759e+00 1.925720e+00 2.253352e+00 2.377074e+00 2.538667e+00 2.572048e+00 2.608197e+00 2.621439e+00 2.518987e+00 2.523679e-04
~h "speech"
<BEGINHMM>
<NUMSTATES> 3
<STATE> 2
<NUMMIXES> 128
<MIXTURE> 1 5.248786e-03
<MEAN> 39
 9.569958e+01 3.787862e+01 -3.709031e+02 1.268962e+01 4.963663e+01 -1.770642e+02 -8.419511e+01 1.869863e+01 1.304847e+02 9.616971e+01 -1.034378e+02 -2.968821e+01 -9.802137e-01 8.189460e+00 1.074177e+01 -1.908708e+01 -9.954157e+00 9.299473e+00 2.230754e+01 -5.895397e+00 -2.847007e+01 4.325520e+00 1.769544e+01 1.157906e+01 -1.135408e+01 -4.199478e-02 -1.035600e+00 6.674820e-01 1.019221e+01 -2.973048e-01 -8.510691e+00 2.664006e+00 8.082127e+00 1.180616e+00 -1.322131e+01 -5.534165e+00 1.036343e+01 7.237081e+00 -3.811101e-02
<VARIANCE> 39
 1.052921e+04 1.011467e+04 1.946988e+04 8.336528e+03 1.061905e+04 1.914632e+04 1.485691e+04 1.643061e+04 1.404388e+04 1.327576e+04 1.369763e+04 1.067803e+04 1.545237e+00 1.423566e+02 3.308429e+02 5.577795e+02 3.207437e+02 4.991076e+02 8.015009e+02 6.776093e+02 1.195317e+03 7.871440e+02 8.053331e+02 9.002668e+02 6.750476e+02 2.321810e-02 1.767904e+01 2.950034e+01 6.729361e+01 4.931460e+01 9.388720e+01 1.021861e+02 1.046196e+02 1.340940e+02 1.180178e+02 1.277908e+02 1.356431e+02 1.239670e+02 3.371802e-03
<GCONST> 3.048027e+02
<MIXTURE> 2 3.272388e-03
<MEAN> 39
 9.718348e+00 -8.489095e+01 -2.625248e+02 3.111630e+01 -1.576464e+02 7.238121e+01 -8.355366e+00 5.434167e+01 3.325428e+01 -3.806813e+01 -1.772019e+02 -3.109378e+02 -7.097657e-01 8.813786e+00 3.282429e+00 -1.358229e+00 5.628437e+00 1.392890e+01 1.611715e+01 2.742551e+01 4.154849e+01 6.056514e+01 7.918028e+01 9.724730e+01 8.624091e+01 2.967817e-02 -2.685961e+00 6.084855e+00 9.047853e+00 3.325057e-01 1.904556e+00 -1.013648e+01 -7.707422e+00 -1.492303e+01 -1.914623e+01 -1.702551e+01 3.789785e-01 2.147879e+01 -6.918423e-02
<VARIANCE> 39
 1.948476e+04 2.144715e+04 3.565916e+04 2.315575e+04 2.706427e+04 1.880790e+04 2.147046e+04 2.852246e+04 2.527042e+04 1.237412e+04 1.622325e+04 1.474362e+04 1.043374e+00 4.537689e+02 8.984673e+02 1.023785e+03 1.577833e+03 1.372870e+03 1.600265e+03 1.998635e+03 2.291764e+03 2.351278e+03 2.177484e+03 1.725866e+03 1.533401e+03 5.521978e-02 5.918592e+01 1.047922e+02 1.519616e+02 1.801832e+02 2.552135e+02 3.177419e+02 3.741325e+02 4.358423e+02 4.201766e+02 3.229547e+02 4.076100e+02 4.548898e+02 7.720402e-03
<GCONST> 3.370709e+02
<MIXTURE> 3 7.103416e-03
<MEAN> 39
 5.949025e+01 1.469533e+02 4.809291e+01 3.467905e+00 1.858434e+01 -7.585737e+01 7.493000e+00 1.561190e+00 5.958086e+01 3.099648e+00 4.321707e+01 3.894624e+01 -2.267199e+00 -7.968729e-01 2.490785e+01 1.231631e+01 1.048057e+01 1.189966e+01 -2.004477e+01 4.472570e+00 -1.324827e+01 8.772444e+00 1.433660e+00 6.434385e+00 -1.710357e+00 -6.104581e-02 -2.766432e+00 -1.863281e+00 -1.019371e+01 -5.058538e-01 -3.302216e+00 5.813262e+00 1.669026e+00 -2.542884e-02 -3.626148e+00 2.160389e+00 -4.104878e+00 -5.094232e+00 4.565835e-02
<VARIANCE> 39
 6.478417e+03 1.278096e+04 1.629716e+04 1.739331e+04 1.336662e+04 2.493489e+04 2.403865e+04 2.108440e+04 1.710963e+04 1.375993e+04 1.353225e+04 1.301224e+04 1.265220e+00 5.813977e+02 1.188627e+03 1.831221e+03 1.376694e+03 1.521126e+03 1.531092e+03 1.599395e+03 1.622071e+03 1.455696e+03 1.286756e+03 1.346419e+03 1.305285e+03 2.996146e-02 4.937548e+01 1.468942e+02 1.177719e+02 1.457710e+02 1.463303e+02 2.212228e+02 2.259237e+02 2.122608e+02 1.895503e+02 1.724183e+02 1.765549e+02 1.769577e+02 2.991770e-03
<GCONST> 3.252044e+02
<MIXTURE> 4 6.043909e-03
<MEAN> 39
 -2.716278e+01 7.237166e+01 -9.051435e+01 -6.125049e+00 -6.178349e+01 -9.873051e+01 -1.356864e+02 -1.974656e+02 -2.334414e+02 -3.032093e+02 -3.724621e+02 -3.594162e+02 -1.864065e+00 3.068586e+00 1.637747e+00 5.791089e+00 1.293623e+01 1.688872e+01 2.570022e+01 3.814049e+01 5.518824e+01 7.024241e+01 6.856433e+01 5.821669e+01 1.811111e+01 -2.662451e-01 -9.206029e+00 -3.765061e+00 -1.891628e+00 -1.324620e+00 -1.276430e+00 5.100580e+00 6.938732e+00 1.022342e+01 1.169526e+01 1.648311e+01 2.526191e+01 3.039430e+01 -1.023883e-01
<VARIANCE> 39
 1.719073e+04 3.448306e+04 3.119304e+04 2.225106e+04 1.834807e+04 2.118839e+04 2.285374e+04 3.097532e+04 2.850388e+04 2.376879e+04 1.833365e+04 1.815728e+04 1.735938e+00 1.202121e+03 1.571612e+03 2.117182e+03 1.745547e+03 1.662140e+03 1.765022e+03 1.992750e+03 2.273389e+03 2.306276e+03 2.306043e+03 2.406836e+03 3.330461e+03 3.196811e-01 1.862707e+02 2.247684e+02 3.067242e+02 2.793281e+02 2.694249e+02 3.187665e+02 3.767917e+02 4.961074e+02 3.957182e+02 4.016071e+02 5.067472e+02 6.140842e+02 2.562435e-02
<GCONST> 3.493964e+02
<MIXTURE> 5 5.633913e-03
<MEAN> 39
 -2.712783e+02 1.135673e+02 -1.056094e+02 2.245532e+01 -1.081281e+01 -3.561285e+01 2.588049e+00 -2.533195e+01 9.095429e+00 -4.552348e+01 2.577665e+00 -3.101792e+01 -4.752474e+00 4.824595e+01 5.162778e+01 4.666067e+01 6.779692e+00 1.615996e+01 -1.911252e+00 -7.252878e+00 -3.081556e+00 3.426906e+00 2.864329e+00 5.713910e+00 3.320106e-01 4.274396e-01 1.584988e+01 8.863150e+00 9.325599e+00 -6.505587e+00 -2.614673e+00 -3.679640e+00 -6.839394e+00 1.554554e-01 3.996542e-01 6.356514e+00 3.695179e+00 4.362354e+00 2.142823e-01
<VARIANCE> 39
 7.591766e+03 2.416198e+04 9.081340e+03 1.068475e+04 1.182846e+04 1.185403e+04 9.851007e+03 1.038367e+04 1.134979e+04 1.092497e+04 1.283324e+04 9.817853e+03 1.465177e+00 7.183947e+02 7.882478e+02 8.578219e+02 1.031016e+03 8.126745e+02 9.993443e+02 1.081724e+03 9.237760e+02 1.022383e+03 9.987892e+02 9.961028e+02 9.339103e+02 1.786549e-01 1.140127e+02 1.423295e+02 2.087739e+02 1.672789e+02 1.873737e+02 2.195952e+02 2.487349e+02 2.238372e+02 2.767830e+02 2.257667e+02 2.376316e+02 2.053144e+02 1.287527e-02
<GCONST> 3.233788e+02
<MIXTURE> 6 6.709598e-03
<MEAN> 39
 1.301832e+02 2.475046e+01 -4.902496e+02 -1.776392e+01 3.832335e+01 5.381727e+01 -1.287672e+01 -5.752238e+01 8.128078e+01 4.953207e+01 -4.843427e+00 -5.718216e+01 -1.473639e+00 5.572629e+00 9.427835e+00 3.062077e-01 -7.972767e+00 -7.324172e+00 6.106185e+00 2.719132e+00 -4.002036e+00 -7.219932e+00 3.057961e+00 9.093155e+00 2.313880e+00 -6.524295e-02 4.917692e-02 -1.155503e-01 2.196184e+00 3.509555e-01 -5.319022e-01 -1.714291e+00 1.920640e-01 1.563871e+00 -8.121184e-01 -1.200005e+00 -2.535644e-01 1.837616e+00 -1.129124e-02
<VARIANCE> 39
 1.112772e+04 1.388102e+04 2.052679e+04 1.233159e+04 1.463239e+04 1.671186e+04 1.232100e+04 1.062396e+04 1.130759e+04 1.206978e+04 1.223324e+04 9.722610e+03 1.749099e+00 6.156584e+01 1.270912e+02 1.430289e+02 1.763231e+02 2.060503e+02 2.267310e+02 2.430415e+02 3.180773e+02 3.038924e+02 3.419159e+02 3.320212e+02 3.525095e+02 1.448990e-02 6.691903e+00 1.097101e+01 1.591424e+01 1.975989e+01 2.424193e+01 3.071953e+01 3.186902e+01 3.819199e+01 3.778510e+01 4.085353e+01 4.058240e+01 4.198676e+01 9.721541e-04
<GCONST> 2.774777e+02
<MIXTURE> 7 4.326417e-03
<MEAN> 39
 -8.717230e+01 4.583768e+01 -1.804365e+02 8.094656e+00 -5.314212e+01 -3.748082e+01 -7.117969e+01 -6.631860e+01 -5.632333e+01 -1.717193e+02 -2.851740e+02 -3.952010e+02 -1.102602e+00 1.480391e+01 1.023470e+01 -3.867139e+00 -3.898013e+00 1.196647e+01 2.430153e+01 3.401939e+01 5.263518e+01 6.611027e+01 7.737867e+01 7.314727e+01 5.036517e+01 -5.086078e-02 1.159236e+00 1.826983e+00 3.071135e+00 -1.176248e+00 -1.199583e+00 6.912562e-01 3.158807e+00 -1.354157e+00 -5.046740e+00 -1.040777e+00 1.009692e+01 2.414519e+01 -1.171729e-02
<VARIANCE> 39
 2.095123e+04 6.505584e+04 2.930996e+04 2.805833e+04 2.133910e+04 2.070756e+04 1.798924e+04 1.965113e+04 2.156121e+04 1.205871e+04 1.206424e+04 9.305911e+03 1.329041e+00 1.557094e+02 3.333467e+02 4.359810e+02 5.629515e+02 6.889093e+02 7.339069e+02 1.071924e+03 1.221903e+03 1.718928e+03 1.645518e+03 1.373957e+03 1.008148e+03 2.386175e-02 2.357706e+01 3.854754e+01 6.032341e+01 7.812199e+01 9.755322e+01 1.490603e+02 1.806588e+02 2.060952e+02 2.293833e+02 1.857190e+02 2.257196e+02 2.776396e+02 2.671488e-03
<GCONST> 3.179329e+02
<MIXTURE> 8 6.024797e-03
<MEAN> 39
 -6.034780e+01 1.578278e+02 -4.378513e+00 4.576530e+01 -6.976200e+00 -1.448833e+01 -1.941401e+01 -4.764629e+01 -2.529994e+01 -7.229070e+01 -1.082350e+02 -1.385061e+02 -2.878266e+00 5.705172e+01 1.596343e+01 -5.201608e+00 -6.273069e+00 -3.145813e+00 -4.180468e+00 1.922198e+01 9.235994e+00 2.887023e+01 1.587951e+01 4.006042e+00 -1.358754e+01 7.568578e-01 -1.096143e+01 -1.517982e+01 -1.293125e+01 -6.868409e+00 -5.125132e+00 2.945741e-01 3.815327e+00 7.220165e+00 9.044209e+00 1.245279e+01 1.556691e+01 1.556099e+01 -8.341899e-03
<VARIANCE> 39
 1.495122e+04 3.946322e+04 1.463700e+04 2.100457e+04 1.798810e+04 1.673906e+04 1.285029e+04 1.149294e+04 1.391442e+04 1.183496e+04 1.084264e+04 9.743635e+03 1.567685e+00 1.426426e+03 2.391762e+03 2.100123e+03 1.928935e+03 1.859145e+03 1.844189e+03 1.733393e+03 1.656787e+03 1.756285e+03 1.806069e+03 2.261420e+03 2.370064e+03 2.253198e-01 1.585992e+02 1.506176e+02 1.444124e+02 2.256758e+02 2.165373e+02 2.562040e+02 2.405775e+02 2.355247e+02 2.574788e+02 2.206370e+02 2.067121e+02 2.005531e+02 2.477975e-02
<GCONST> 3.369680e+02
<MIXTURE> 9 3.496749e-03
<MEAN> 39
 -2.714310e+02 3.472370e+00 3.288320e+01 -4.552944e+01 -1.293103e+02 2.429123e-01 1.071525e+01 -1.007366e+02 1.139285e+01 -1.591538e+01 -3.835190e+01 3.253807e+00 -3.741039e+00 8.935162e+00 -4.031188e+00 6.094041e+00 7.334004e+00 1.603886e-01 -2.109123e+00 4.860692e+00 -9.267697e-01 -1.008177e+00 1.753933e+00 1.851043e+00 -5.733457e-02 -1.208668e-01 8.761490e+00 3.352659e+00 -7.676547e-01 3.811227e+00 5.935174e+00 -6.892664e-01 -7.439415e-01 6.377142e+00 1.577964e+00 3.656404e+00 4.012296e+00 -6.691240e-01 -6.836846e-03
<VARIANCE> 39
 2.848976e+04 3.130362e+04 1.902937e+04 2.532265e+04 2.037799e+04 1.869387e+04 1.559398e+04 1.559008e+04 1.054865e+04 1.062546e+04 7.890581e+03 5.457957e+03 2.544045e+00 3.261990e+02 3.989343e+02 3.828429e+02 5.050180e+02 5.567169e+02 6.165544e+02 6.450609e+02 6.774470e+02 6.842658e+02 6.304365e+02 5.983929e+02 5.242425e+02 6.915161e-02 1.615501e+02 9.786324e+01 1.052944e+02 1.070099e+02 1.308503e+02 1.499578e+02 1.432937e+02 1.434979e+02 1.331805e+02 1.204086e+02 1.084728e+02 8.938707e+01 1.662656e-02
<GCONST> 3.146140e+02
<MIXTURE> 10 5.536634e-03
<MEAN> 39
 -6.564800e+01 -8.755170e+01 -1.398027e+02 -2.111073e+01 -6.671986e+01 1.612414e+01 2.947973e+00 -2.880258e+01 -4.840269e+01 -2.683461e+01 -4.330333e+01 -3.159923e+01 -5.311903e+00 2.457770e+01 -2.178428e+00 -2.472341e+01 8.395613e+00 -1.377467e+00 -3.765381e+00 -4.845719e-01 -3.533268e+00 3.299127e+00 1.162982e+01 1.000604e+01 5.514603e+00 8.740740e-01 5.641074e+00 1.370297e+01 2.011125e+00 4.640746e+00 5.378098e+00 -6.436239e+00 -5.899379e-01 1.699868e+00 6.357113e+00 5.896210e+00 4.818923e+00 4.952308e+00 1.747599e-01
<VARIANCE> 39
 1.946621e+04 1.763235e+04 2.471727e+04 1.673252e+04 1.382403e+04 1.364918e+04 1.161157e+04 1.049178e+04 9.299659e+03 9.188536e+03 7.976426e+03 6.517715e+03 3.764813e+00 1.850816e+03 2.883682e+03 2.487677e+03 1.984820e+03 2.182900e+03 2.069574e+03 1.902214e+03 1.727885e+03 1.604214e+03 1.388416e+03 1.286557e+03 1.085259e+03 5.098382e-01 2.183261e+02 3.651554e+02 4.134033e+02 2.780150e+02 2.590948e+02 2.769205e+02 2.605004e+02 2.639087e+02 2.683731e+02 2.476707e+02 2.220793e+02 1.826158e+02 7.731772e-02
<GCONST> 3.399369e+02
<MIXTURE> 11 9.127513e-03
<MEAN> 39
 1.622378e+01 2.534790e+02 -4.176678e+01 4.501941e+01 6.322117e+00 -1.477606e+02 1.062774e+02 -8.739107e+01 1.050374e+02 1.651183e+01 6.645396e+01 -5.494070e-01 -2.240984e+00 1.773907e+00 4.483186e+00 6.776715e+00 1.888582e+00 3.023412e+00 -3.158740e+00 -4.645016e-01 -3.378042e+00 1.121671e+00 2.448472e+00 3.176461e+00 7.976384e-01 -2.844299e-02 1.719925e+00 -5.772157e+00 1.114626e+00 -4.212085e+00 -4.713534e-01 5.580660e+00 -5.191951e+00 5.881196e+00 -5.957105e+00 1.543794e+00 -5.743097e+00 1.091326e+00 6.942122e-03
<VARIANCE> 39
 6.435744e+03 2.242115e+04 1.977500e+04 1.505816e+04 2.252803e+04 2.143651e+04 1.743731e+04 1.650104e+04 1.653502e+04 1.374219e+04 1.411514e+04 1.462416e+04 1.483095e+00 1.773378e+02 4.626703e+02 6.497953e+02 6.509819e+02 6.625566e+02 8.584996e+02 7.715944e+02 7.786946e+02 7.632963e+02 8.424164e+02 8.120688e+02 8.693251e+02 1.330686e-02 3.076707e+01 7.488457e+01 1.318669e+02 1.246743e+02 1.524700e+02 1.725979e+02 1.704013e+02 1.618380e+02 1.612750e+02 1.536031e+02 1.376083e+02 1.458575e+02 2.400924e-03
<GCONST> 3.134250e+02
<MIXTURE> 12 1.239325e-02
<MEAN> 39
 1.765916e+01 2.369684e+02 2.090862e+01 -2.704806e+01 6.161235e+01 -1.509289e+02 3.446060e+01 -4.802116e+01 2.003649e+00 9.200712e+01 -9.263221e+00 3.974707e+01 -2.561944e+00 2.542101e+00 1.586547e+00 2.675892e+00 2.129905e+00 2.304616e+00 -1.746195e+00 -1.059879e+00 -2.501991e+00 5.848835e-01 1.660048e+00 2.006957e+00 1.954089e+00 -3.527723e-02 4.895249e-01 -4.471877e-01 -8.489504e-01 -2.245315e-01 -1.227992e+00 2.380385e+00 -6.684808e-01 1.129622e+00 -3.879143e-02 -1.563569e+00 -4.932950e-01 -1.844895e+00 -2.888895e-03
<VARIANCE> 39
 1.034005e+04 2.338975e+04 1.802138e+04 1.800217e+04 2.774256e+04 2.045214e+04 1.660921e+04 2.156829e+04 2.122816e+04 1.432816e+04 1.631943e+04 1.371255e+04 1.943660e+00 8.247060e+01 1.254760e+02 2.111676e+02 2.519888e+02 2.997745e+02 3.490685e+02 3.790536e+02 4.154593e+02 4.605148e+02 4.290967e+02 4.223983e+02 3.925913e+02 7.852521e-03 1.263083e+01 2.376084e+01 3.492752e+01 4.542780e+01 5.904484e+01 6.616495e+01 7.231427e+01 7.417117e+01 8.214789e+01 7.678765e+01 7.374163e+01 7.032219e+01 6.461217e-04
<GCONST> 2.927636e+02
<MIXTURE> 13 6.270875e-03
<MEAN> 39
 1.404423e+02 1.051505e+02 -3.208081e+02 8.745735e+00 4.370884e+01 -7.056670e+01 -1.372791e+02 -9.513132e+01 2.799165e+01 1.342733e+02 4.508188e+01 2.832972e+00 -1.143518e+00 1.212474e+01 2.078314e+01 -1.758462e+01 -2.668313e+01 1.153796e+00 4.092936e+01 1.913453e+01 -2.904448e+01 -3.116945e+01 3.451602e-01 1.474810e+01 8.674161e+00 -6.294911e-02 -8.785407e+00 -1.773487e+00 1.934221e+01 1.024859e+00 -1.233984e+01 -4.222073e+00 1.581102e+01 1.282698e+01 -4.358797e+00 -1.653532e+01 -5.628368e+00 2.370271e+00 -9.695203e-02
<VARIANCE> 39
 8.177709e+03 1.200750e+04 1.925488e+04 1.199146e+04 1.198008e+04 2.180580e+04 1.788700e+04 1.880270e+04 2.616030e+04 1.572180e+04 2.035480e+04 1.686511e+04 1.559561e+00 2.550528e+02 4.565245e+02 1.615891e+03 9.247936e+02 1.109517e+03 1.463161e+03 1.842764e+03 1.628594e+03 1.431131e+03 1.892394e+03 1.395359e+03 1.380479e+03 6.089859e-02 6.611649e+01 8.974698e+01 1.451928e+02 1.655035e+02 2.146588e+02 3.479195e+02 3.050407e+02 2.700981e+02 3.822780e+02 2.601382e+02 3.240433e+02 2.793481e+02 1.198178e-02
<GCONST> 3.296782e+02
<MIXTURE> 14 9.197045e-03
<MEAN> 39
 5.693324e+01 -3.683159e+01 -2.011773e+02 8.409299e+01 -6.365356e+01 -2.008698e+02 -1.808570e+01 1.509755e+02 1.955515e+01 -1.301197e+01 -3.438423e+01 4.286655e+01 -1.257430e+00 1.935966e+01 5.984080e+00 -4.364488e+01 2.363758e+00 4.803469e+01 2.405287e+00 -4.119611e+01 -5.340335e+00 3.448485e+01 7.091608e+00 -2.438925e+01 -5.776416e+00 -6.588452e-02 -4.413735e+00 9.652344e+00 9.638343e+00 -1.240448e+01 -6.405801e-01 1.725057e+01 2.714399e+00 -2.259900e+01 -2.086160e+00 1.064987e+01 3.330241e+00 -7.633686e+00 -6.307302e-02
<VARIANCE> 39
 9.139778e+03 1.389121e+04 2.013903e+04 1.150562e+04 1.567640e+04 2.076018e+04 2.380266e+04 1.477412e+04 2.146405e+04 1.494920e+04 1.638777e+04 1.438315e+04 1.879524e+00 2.404627e+02 4.999536e+02 1.751720e+03 9.139313e+02 1.023452e+03 1.505021e+03 1.266916e+03 1.833955e+03 1.206438e+03 1.710422e+03 1.159686e+03 1.219442e+03 5.593464e-02 5.334376e+01 8.076092e+01 1.334342e+02 1.627706e+02 2.334623e+02 2.688013e+02 3.620675e+02 2.231927e+02 3.438512e+02 2.500282e+02 2.828513e+02 2.252413e+02 9.778823e-03
<GCONST> 3.275772e+02
<MIXTURE> 15 1.303925e-02
<MEAN> 39
 6.626122e+01 1.186355e+02 2.201036e+01 4.532619e+01 4.821341e+01 4.206761e+01 2.002243e+01 -2.221284e+00 2.687176e+01 3.401580e+01 -4.243658e+00 -1.207399e+01 -4.638475e+00 -6.788706e+00 1.996520e+00 1.109282e+01 1.151911e+01 9.316727e+00 4.967950e+00 3.049353e+00 2.794431e+00 -4.468493e-01 -1.309175e+00 -2.131263e+00 -1.965045e+00 -1.991536e-01 -1.326754e+00 -1.570116e+00 -2.414351e+00 -1.061390e+00 -6.930720e-01 -3.492739e-01 1.881386e-01 -3.499948e-01 -7.009282e-01 -9.952285e-01 -6.196524e-01 2.302643e-01 1.139409e-02
<VARIANCE> 39
 6.606506e+03 1.420140e+04 1.727004e+04 1.548927e+04 1.583870e+04 1.484315e+04 1.263940e+04 1.295392e+04 1.120993e+04 1.086179e+04 1.130634e+04 9.632619e+03 2.493789e+00 2.102980e+02 3.404606e+02 4.382383e+02 4.868287e+02 5.966945e+02 7.362393e+02 7.067879e+02 8.062758e+02 7.719710e+02 7.768924e+02 7.480558e+02 7.347640e+02 2.813073e-02 1.908375e+01 3.372347e+01 4.321387e+01 5.434303e+01 6.500818e+01 7.837524e+01 8.357252e+01 8.830424e+01 8.791286e+01 8.090360e+01 7.936498e+01 7.804482e+01 2.236082e-03
<GCONST> 3.014803e+02
<MIXTURE> 16 6.846458e-03
<MEAN> 39
 1.313798e+02 -4.835161e+00 -2.752094e+02 3.063777e+00 6.402764e+01 5.688835e+01 -8.097517e+01 5.505006e+00 3.218681e+01 1.317689e+02 -1.295646e+01 -2.027589e+01 -2.241579e+00 2.471436e+00 2.106792e+01 1.724259e+01 -1.771663e+01 -3.551464e-01 3.058430e+00 1.835960e+01 -1.370998e+01 -1.243671e+01 -1.799998e+00 1.074180e+01 6.714441e+00 -1.776551e-01 -3.917836e+00 8.100982e-01 5.724626e+00 4.445441e+00 -6.612491e+00 -7.463644e+00 7.194315e+00 4.831203e+00 -1.036955e+00 -1.344283e+01 -1.268431e+00 1.998372e+00 -3.867737e-03
<VARIANCE> 39
 1.226308e+04 1.363142e+04 2.904898e+04 1.586996e+04 1.858075e+04 2.039975e+04 1.490587e+04 1.566170e+04 1.557594e+04 1.229468e+04 1.505139e+04 1.355336e+04 2.315128e+00 2.123326e+02 4.062274e+02 7.865214e+02 6.832356e+02 8.548366e+02 1.055765e+03 1.053734e+03 1.209667e+03 1.104705e+03 1.144504e+03 1.140725e+03 1.092104e+03 2.756648e-02 2.170103e+01 4.486885e+01 7.075679e+01 8.879815e+01 1.199003e+02 1.432987e+02 1.507263e+02 1.842854e+02 1.707095e+02 1.279402e+02 1.837763e+02 1.786398e+02 2.232341e-03
<GCONST> 3.153467e+02
<MIXTURE> 17 9.326846e-03
<MEAN> 39
 -6.531251e+01 -2.316549e+02 -1.545413e+02 3.893888e+01 6.946230e+00 1.345329e+01 1.619993e+02 -1.423662e+01 -1.697653e+02 5.127451e+01 1.499360e+01 3.204383e+01 -4.650879e-01 4.343690e-01 1.145515e+00 7.906873e+00 -1.532174e+00 -1.051509e+00 2.524328e+00 -1.608935e+00 -5.714684e+00 2.515908e+00 2.930183e+00 -2.487320e+00 -2.451639e+00 -8.824009e-02 2.903681e+00 8.595230e+00 2.473148e+00 -6.226007e+00 -6.241193e+00 -9.287772e-02 -3.091876e+00 1.505091e+00 1.410400e+01 -3.677292e+00 -6.849615e+00 -1.510930e+00 -4.669245e-02
<VARIANCE> 39
 1.032979e+04 7.540599e+03 8.971149e+03 1.275843e+04 1.472259e+04 1.389774e+04 1.434452e+04 1.936929e+04 1.467114e+04 1.157647e+04 1.047868e+04 8.579578e+03 9.781243e-01 1.853949e+02 2.988329e+02 5.723939e+02 9.870559e+02 9.586459e+02 1.043923e+03 7.020789e+02 1.024396e+03 8.224859e+02 8.681149e+02 7.364644e+02 6.382745e+02 1.694539e-02 1.882271e+01 3.517334e+01 4.629662e+01 6.633511e+01 9.479102e+01 1.126628e+02 1.203271e+02 1.330599e+02 1.203740e+02 1.282552e+02 1.138514e+02 1.051260e+02 2.206153e-03
<GCONST> 3.045565e+02
<MIXTURE> 18 1.024038e-02
<MEAN> 39
 -1.019081e+02 3.599712e+02 5.459126e+01 -1.577657e+02 7.904871e+01 -9.399017e+01 -1.412218e+02 1.037791e+02 -6.180097e+01 5.445786e+01 5.939532e+01 -1.416438e+01 -1.964062e+00 5.185028e+00 -8.302241e+00 3.997938e+00 -4.368878e+00 -3.868255e+00 6.580194e-01 -1.607130e+00 2.512815e+00 1.318818e+00 4.278259e+00 -2.317249e+00 4.169043e+00 -1.988607e-02 2.067203e+00 -5.945063e+00 2.032500e+00 5.862426e+00 -5.482217e+00 2.505104e+00 4.907718e+00 -9.297830e+00 2.843984e+00 -2.802930e+00 -4.907600e+00 1.796719e+00 -2.059627e-02
<VARIANCE> 39
 9.003988e+03 1.297804e+04 1.927015e+04 1.806135e+04 1.298151e+04 1.837390e+04 1.666181e+04 1.378231e+04 1.700063e+04 1.531867e+04 1.472946e+04 1.356885e+04 1.971536e+00 2.214143e+02 8.308547e+02 7.525082e+02 8.467222e+02 8.596718e+02 1.129450e+03 1.139739e+03 1.076564e+03 1.104868e+03 1.139068e+03 1.066606e+03 1.034357e+03 3.438940e-02 2.634752e+01 6.293182e+01 9.499320e+01 1.180886e+02 1.203696e+02 1.474801e+02 1.528950e+02 1.351401e+02 1.476248e+02 1.566743e+02 1.480561e+02 1.498907e+02 3.469534e-03
<GCONST> 3.163675e+02
<MIXTURE> 19 1.017309e-02
<MEAN> 39
 -2.294183e+02 2.558826e+01 -8.782800e+01 -2.156898e+00 -7.430659e+01 -3.910826e+01 -4.825665e+01 -2.533515e+01 -2.448262e+01 -6.418702e+00 -1.114211e+01 -2.766485e+00 -5.522332e+00 -9.325215e+00 1.526262e+01 -7.457036e+00 3.782264e+00 1.257638e+00 1.914421e+00 2.851862e+00 1.079304e+00 4.075296e+00 1.899565e+00 2.184060e+00 6.670783e-01 6.566033e-01 1.230200e+01 5.836830e+00 4.663621e+00 2.029036e+00 5.041203e+00 2.237819e+00 5.511485e+00 1.592228e+00 2.906169e+00 6.208521e-01 -8.116012e-01 -1.231500e+00 1.092321e-01
<VARIANCE> 39
 7.258990e+03 1.152286e+04 7.275213e+03 6.953675e+03 7.283032e+03 7.625623e+03 6.977438e+03 6.559648e+03 6.442469e+03 6.132917e+03 6.089139e+03 5.291268e+03 2.776661e+00 1.792106e+03 1.001475e+03 9.511181e+02 8.839090e+02 1.029418e+03 1.028409e+03 1.110178e+03 1.025968e+03 9.546749e+02 9.173151e+02 8.579913e+02 7.617234e+02 3.498706e-01 1.799844e+02 1.718034e+02 2.218754e+02 1.578290e+02 1.717349e+02 1.894986e+02 1.866089e+02 1.624150e+02 1.605123e+02 1.462301e+02 1.436401e+02 1.344996e+02 5.798097e-02
<GCONST> 3.194122e+02
<MIXTURE> 20 7.406456e-03
<MEAN> 39
 -7.573336e+01 1.275991e+02 2.588712e+01 -2.238248e+02 -6.861104e+01 1.852091e+01 -5.933055e+01 1.380343e+01 7.569580e+01 -1.456325e+01 2.685303e+01 1.884052e+01 -1.418581e+00 3.615814e+00 3.681977e+01 1.400510e+01 -1.812257e+00 1.843631e+01 -1.723541e+01 -2.927094e+01 1.093184e+01 -3.212050e+00 -7.469158e+00 1.294549e+01 -1.867960e+00 -2.018189e-01 2.559356e+00 -4.892470e+00 -5.285795e+00 2.529623e+01 2.991051e+00 -7.764874e+00 1.093738e+01 -4.276192e+00 -9.684867e+00 3.967293e+00 -4.369266e+00 -6.053009e+00 -7.278795e-02
<VARIANCE> 39
 7.714511e+03 2.372069e+04 1.686886e+04 1.074049e+04 2.297142e+04 2.327489e+04 2.185400e+04 1.945621e+04 1.973131e+04 1.495336e+04 1.615767e+04 1.630822e+04 1.209581e+00 7.723338e+02 1.884488e+03 1.751537e+03 2.152875e+03 2.497463e+03 2.356245e+03 2.375104e+03 2.192056e+03 2.150946e+03 2.306282e+03 1.989637e+03 1.832481e+03 1.217752e-01 7.145853e+01 1.558528e+02 2.458935e+02 1.800789e+02 3.041579e+02 4.005710e+02 4.274923e+02 4.345198e+02 4.136548e+02 3.375948e+02 3.623723e+02 3.027924e+02 1.414862e-02
<GCONST> 3.406257e+02
<MIXTURE> 21 1.210710e-02
<MEAN> 39
 4.108292e+01 1.263831e+02 -1.152961e+02 7.102733e+00 -1.662870e+02 -2.705854e+01 5.856276e+01 -7.093812e+01 7.580228e+01 -4.556942e+01 2.879079e+01 -4.159787e+01 -2.454060e+00 2.303322e+00 1.089590e+00 2.454009e+00 6.999661e-01 -3.767730e+00 1.711775e+00 -1.569018e+00 -6.734927e-01 7.498195e-01 2.438637e+00 2.738658e+00 1.226596e+00 -4.761940e-02 -5.860393e-02 -3.269442e-01 4.273157e-01 -1.093778e+00 4.197308e+00 -2.777015e-01 -1.728327e+00 -3.599888e-01 -2.881633e+00 2.521893e+00 4.529221e-01 2.897344e+00 -1.057277e-02
<VARIANCE> 39
 1.772629e+04 5.072005e+04 5.495686e+04 1.952264e+04 3.028647e+04 2.625500e+04 2.406643e+04 2.660946e+04 1.766199e+04 1.585464e+04 1.402588e+04 1.248008e+04 2.657716e+00 5.773481e+01 1.175784e+02 2.305893e+02 2.178198e+02 3.146420e+02 3.655696e+02 3.907047e+02 4.542538e+02 4.498857e+02 4.645635e+02 4.504349e+02 4.722518e+02 1.473898e-02 9.767401e+00 1.848959e+01 3.326262e+01 3.699285e+01 4.794231e+01 6.383394e+01 7.430707e+01 8.605725e+01 8.328029e+01 8.227718e+01 8.392676e+01 7.995372e+01 1.222542e-03
<GCONST> 2.969929e+02
<MIXTURE> 22 5.481057e-03
<MEAN> 39
 -1.232645e+02 -5.291096e+01 -1.652175e+02 -1.080545e+02 -2.260847e+02 -2.141703e+02 -3.130955e+02 -3.683633e+02 -3.278656e+02 -1.477317e+02 8.329424e+01 2.224056e+02 -1.485178e+00 -1.775984e+00 -7.672193e+00 4.520418e+00 1.643675e+01 1.369744e+01 1.675925e+01 1.617305e+01 1.441531e+01 5.587935e+00 -1.362601e+01 -2.726562e+01 -2.830297e+01 -1.251962e-01 -3.182130e+00 3.873135e+00 1.800701e+00 5.094463e+00 8.686300e+00 7.204052e+00 1.163915e+01 1.611092e+01 1.229249e+01 1.815691e+00 -1.297230e+01 -1.889847e+01 -1.128547e-01
<VARIANCE> 39
 1.795253e+04 2.779238e+04 2.233621e+04 2.719029e+04 2.461277e+04 4.033260e+04 3.463418e+04 2.973143e+04 7.207707e+04 1.399394e+05 1.066821e+05 4.358293e+04 2.414324e+00 1.157726e+03 2.008517e+03 2.384359e+03 2.380911e+03 2.280162e+03 3.313427e+03 3.520747e+03 3.483152e+03 4.109310e+03 5.556978e+03 6.421791e+03 6.940115e+03 2.875667e-01 1.626281e+02 2.147857e+02 3.178714e+02 4.532374e+02 4.090665e+02 6.734725e+02 6.645247e+02 6.934211e+02 9.462409e+02 1.090505e+03 9.387700e+02 1.032595e+03 3.381082e-02
<GCONST> 3.674059e+02
<MIXTURE> 23 8.715346e-03
<MEAN> 39
 -3.490013e+02 1.042303e+02 -1.281902e+02 -3.458101e+01 -5.038910e+01 -5.143571e+01 -4.055456e+01 -2.067417e+01 -5.122360e+00 -1.846001e+01 -1.777341e+00 -1.041265e+01 -3.823965e+00 -4.462478e+00 -1.000467e+00 -2.558680e+00 -4.423114e+00 -9.799317e-01 -2.891877e+00 -3.870456e-01 -9.474036e-01 2.850764e+00 1.235813e-01 2.285428e+00 1.461285e+00 1.509697e-02 1.094004e+01 7.148852e+00 1.128825e+01 4.966949e+00 4.789563e+00 4.449225e+00 1.268996e+00 -4.297214e-01 -2.089091e-01 -5.795772e-01 -1.389823e+00 -1.227531e+00 -4.541934e-03
<VARIANCE> 39
 7.431720e+03 1.386035e+04 9.378518e+03 9.242041e+03 1.054324e+04 1.018897e+04 9.341311e+03 1.014229e+04 1.063112e+04 1.097773e+04 1.048591e+04 9.465226e+03 1.877173e+00 2.063126e+02 3.191611e+02 4.189097e+02 5.312963e+02 6.343693e+02 6.982018e+02 7.495572e+02 8.261599e+02 8.481254e+02 8.290042e+02 7.602589e+02 7.142176e+02 4.757014e-02 7.380651e+01 6.939216e+01 7.680519e+01 8.713422e+01 1.161319e+02 1.265214e+02 1.479144e+02 1.592615e+02 1.751744e+02 1.770307e+02 1.578661e+02 1.569428e+02 7.595238e-03
<GCONST> 3.088420e+02
<MIXTURE> 24 8.923360e-03
<MEAN> 39
 6.463676e+01 2.179956e+02 8.931119e+01 -3.596129e+00 3.625788e+01 -7.693779e+01 3.572075e+01 -8.507583e+01 5.931247e+01 3.337150e+01 1.320339e+01 1.143867e+01 -2.937515e+00 -1.370912e+00 1.105058e+00 1.035536e+01 2.359076e+01 9.366282e+00 2.050468e+01 -1.935400e+00 5.756841e+00 -8.693873e+00 -2.609025e+00 -1.806128e+00 -4.289437e-01 -3.595838e-01 -1.264021e+01 -1.011779e+01 -6.429155e+00 -4.133055e-02 -3.222022e+00 8.053863e+00 -6.639248e-01 7.375734e+00 -4.646682e+00 -3.649489e+00 -3.580227e+00 -2.099340e+00 -1.458251e-01
<VARIANCE> 39
 7.640175e+03 1.103187e+04 1.128483e+04 1.571629e+04 1.957557e+04 2.499391e+04 1.917890e+04 2.280584e+04 1.802661e+04 1.557727e+04 1.657521e+04 1.349204e+04 2.574497e+00 3.850570e+02 5.228893e+02 5.152568e+02 6.765793e+02 9.125767e+02 1.109556e+03 1.089204e+03 1.134232e+03 1.090889e+03 1.094592e+03 1.079568e+03 9.829974e+02 7.110824e-02 8.836011e+01 1.128069e+02 1.012926e+02 1.444935e+02 1.888320e+02 2.411377e+02 2.227682e+02 2.485355e+02 2.260541e+02 2.248631e+02 2.119219e+02 1.861321e+02 1.244118e-02
<GCONST> 3.239818e+02
<MIXTURE> 25 9.361704e-03
<MEAN> 39
 -2.530654e+02 2.268624e+01 6.138950e+01 -6.732893e+01 -1.134698e+02 4.222832e+01 -2.577507e+01 -4.598804e+01 2.737200e+01 1.640021e+01 -3.046022e+00 -7.320457e+00 -4.340201e+00 1.459841e+01 -5.310817e+00 1.808972e+00 5.900820e+00 -9.813164e+00 -8.073322e-01 1.104289e+01 -2.826989e+00 1.151632e+00 5.874501e+00 -1.458459e-01 -4.503478e+00 4.033588e-01 1.692497e+01 5.504771e-01 -1.395656e+01 9.451333e+00 7.753138e+00 -1.171715e+01 3.083652e+00 2.485680e+00 -4.748252e+00 -2.661560e+00 -2.965265e+00 -1.938906e+00 1.030891e-01
<VARIANCE> 39
 1.192417e+04 1.604668e+04 1.496404e+04 1.857290e+04 2.093029e+04 1.979966e+04 1.794820e+04 1.583836e+04 1.492384e+04 1.405755e+04 1.137804e+04 9.726679e+03 1.606004e+00 4.322634e+03 1.786709e+03 1.612398e+03 2.347195e+03 2.420353e+03 2.669729e+03 2.355148e+03 1.974544e+03 1.840047e+03 1.617862e+03 1.496724e+03 1.315951e+03 5.087284e-01 2.611602e+02 2.336860e+02 3.089407e+02 3.505869e+02 3.997773e+02 4.057898e+02 4.802956e+02 4.336244e+02 3.935602e+02 3.548563e+02 3.015118e+02 2.678481e+02 4.452218e-02
<GCONST> 3.453085e+02
<MIXTURE> 26 5.525292e-03
<MEAN> 39
 -1.748730e+02 2.848518e+02 -1.334088e+02 -1.561350e+01 -5.320293e+01 -2.188047e+02 -1.199587e+02 -3.312519e+02 -3.486696e+02 -4.705768e+02 -5.023895e+02 -3.625243e+02 -1.173732e+00 -3.658820e-01 -3.397076e+00 -5.372846e+00 -8.921663e-01 3.043813e+00 6.323154e+00 1.054077e+01 8.228753e+00 7.269421e+00 -2.574527e+00 -6.420776e+00 -1.519401e+01 2.990630e-02 3.624982e+00 -3.470059e+00 1.334386e+00 -2.742152e+00 -2.681811e-01 3.668460e+00 1.448464e+00 1.114135e+01 1.254064e+01 1.650035e+01 1.600049e+01 8.299882e+00 -5.186013e-02
<VARIANCE> 39
 1.121105e+04 1.754330e+04 1.602676e+04 1.880309e+04 1.394510e+04 1.173068e+04 1.608283e+04 2.065883e+04 1.659929e+04 1.946469e+04 1.341993e+04 1.573622e+04 1.072504e+00 2.053540e+02 3.763286e+02 5.037412e+02 6.980193e+02 5.485668e+02 6.499484e+02 1.010235e+03 1.380490e+03 1.285940e+03 1.318342e+03 1.244881e+03 1.499265e+03 2.322591e-02 3.371278e+01 5.821180e+01 9.570118e+01 1.052569e+02 1.080986e+02 1.383585e+02 1.728709e+02 2.102950e+02 2.620650e+02 3.082926e+02 2.953529e+02 2.700425e+02 4.854856e-03
<GCONST> 3.178145e+02
<MIXTURE> 27 9.591557e-03
<MEAN> 39
 1.249645e+01 -2.000918e+02 -3.793437e+02 2.291026e+02 -6.325279e+00 2.729083e+01 -1.159334e+00 4.773592e+01 1.440311e+01 -8.584634e+01 3.701249e+01 1.225790e+01 -1.553022e+00 4.217803e+00 1.601315e+00 -1.670023e+00 4.419621e-01 4.405605e-01 5.299412e+00 -5.844508e+00 3.458032e+00 -1.551410e+00 3.623836e-02 -2.951606e+00 -6.698698e-01 -7.987905e-02 7.701889e-01 8.524268e-01 1.863904e+00 -2.257450e+00 3.156429e-02 -2.721453e-01 8.292214e-01 -5.284669e-01 -2.322544e-02 2.168190e+00 -1.432805e+00 -6.140618e-01 -1.593744e-02
<VARIANCE> 39
 1.113450e+04 7.938801e+03 1.839719e+04 1.142899e+04 1.684338e+04 1.034221e+04 1.562488e+04 1.347034e+04 1.313078e+04 1.223428e+04 1.001191e+04 8.327858e+03 1.879540e+00 1.047340e+02 1.059842e+02 2.432829e+02 1.985807e+02 2.332431e+02 2.413829e+02 3.308558e+02 3.582550e+02 3.434774e+02 3.573518e+02 3.276710e+02 3.346417e+02 2.001686e-02 9.510987e+00 1.070017e+01 1.736668e+01 2.337388e+01 2.734074e+01 3.125628e+01 3.845800e+01 4.498215e+01 4.531620e+01 4.656146e+01 4.556393e+01 4.402368e+01 1.197470e-03
<GCONST> 2.805429e+02
<MIXTURE> 28 8.325380e-03
<MEAN> 39
 6.572230e+01 8.018486e+01 -1.027969e+02 3.651320e+01 -9.332761e+01 -2.718010e+01 8.440821e+01 2.445251e+01 7.027261e+00 -1.172566e+02 -4.327980e+01 -3.355996e+01 -3.413589e+00 1.781862e+00 8.464993e+00 8.072868e+00 2.807724e-01 1.014589e+00 -5.413374e-01 -8.012701e-01 -1.829739e+00 2.399869e+00 3.038349e+00 1.613545e-02 -3.487841e+00 -1.256989e-01 -2.247194e+00 -4.428838e-01 -2.027665e-01 -7.252616e-01 5.593981e+00 1.732859e-01 -7.930756e+00 -6.503065e+00 -1.235467e-02 1.287489e+01 5.175570e+00 1.519501e+00 -2.288148e-03
<VARIANCE> 39
 1.337400e+04 4.458792e+04 3.165912e+04 1.901362e+04 3.453629e+04 2.616907e+04 2.082433e+04 2.936676e+04 2.098475e+04 1.233226e+04 1.668470e+04 1.613630e+04 3.571139e+00 1.854005e+02 4.356956e+02 6.277485e+02 6.123190e+02 9.459107e+02 8.924341e+02 9.646431e+02 1.157127e+03 1.168582e+03 1.052897e+03 9.961210e+02 9.952096e+02 5.658913e-02 2.919002e+01 6.176405e+01 8.417850e+01 9.443034e+01 1.481545e+02 1.512372e+02 1.599457e+02 2.013369e+02 1.712302e+02 1.235679e+02 1.752043e+02 1.611995e+02 4.421073e-03
<GCONST> 3.213583e+02
<MIXTURE> 29 4.317475e-03
<MEAN> 39
 -6.699578e+01 8.280783e+00 -2.012526e+02 -2.024214e+02 -2.667957e+01 9.894579e+01 3.701536e+01 8.881956e+01 5.344908e+01 -3.357100e+01 -3.817484e+01 -1.172068e+02 -1.014885e+00 -1.535783e+01 -6.149379e+01 -1.474375e+01 1.613868e+01 3.204730e+01 4.937284e+01 7.932653e-01 -1.855987e+01 2.408445e-01 -3.514963e+00 2.072258e+01 1.977575e+01 2.211047e-01 -3.803806e+00 2.406748e-01 1.273358e+01 2.360944e+01 2.990034e+00 -1.324815e+01 -8.427335e+00 -1.891127e+01 -3.317679e+00 4.144978e+00 3.287837e+00 9.885324e+00 -1.297573e-01
<VARIANCE> 39
 2.259946e+04 1.794604e+04 2.152812e+04 2.205223e+04 1.720806e+04 2.017489e+04 1.254907e+04 1.724839e+04 1.615132e+04 1.437072e+04 1.941321e+04 3.146687e+04 1.134809e+00 3.829800e+02 1.456900e+03 1.143466e+03 1.424819e+03 1.459016e+03 1.943287e+03 1.886105e+03 2.268410e+03 2.008866e+03 2.119555e+03 2.390024e+03 2.168807e+03 8.086643e-02 1.177621e+02 1.594039e+02 1.349792e+02 2.224804e+02 2.308522e+02 3.595814e+02 2.531208e+02 3.309759e+02 3.821982e+02 3.352271e+02 3.508230e+02 4.052113e+02 1.909297e-02
<GCONST> 3.383066e+02
<MIXTURE> 30 7.265316e-03
<MEAN> 39
 -3.702089e+01 -5.980204e+01 -6.424387e+01 -6.102564e+01 -2.255087e+02 1.549396e+01 1.957997e+02 -4.530191e+01 -2.638279e+01 9.143455e+01 -5.113805e+01 -4.066697e+01 -9.776583e-01 -5.929838e+00 2.875165e+01 3.481245e+01 -4.066180e+01 -5.805591e+00 2.540640e+01 -2.657230e+01 -2.348637e+01 3.626335e+01 2.241930e+00 -1.734340e+01 4.681653e+00 -1.428243e-01 2.658172e+00 9.418805e+00 2.499128e-01 6.438985e+00 1.826709e+01 -1.135295e+01 -1.981405e+01 7.946578e+00 3.624297e+00 -1.210929e+01 5.295933e+00 7.068738e+00 -7.194918e-02
<VARIANCE> 39
 9.016379e+03 1.369480e+04 1.138654e+04 1.369704e+04 1.474577e+04 2.329103e+04 1.552029e+04 1.542722e+04 2.176168e+04 1.358193e+04 1.451310e+04 1.328360e+04 1.335418e+00 4.350249e+02 7.243513e+02 1.063900e+03 1.427029e+03 1.281096e+03 2.090374e+03 1.593831e+03 1.782556e+03 1.456535e+03 1.438005e+03 1.313935e+03 1.280443e+03 4.399863e-02 4.634369e+01 7.261039e+01 1.603064e+02 1.691374e+02 2.240730e+02 2.365206e+02 2.554668e+02 2.917047e+02 3.297337e+02 2.268145e+02 2.560699e+02 2.114100e+02 7.673070e-03
<GCONST> 3.269914e+02
<MIXTURE> 31 8.540962e-03
<MEAN> 39
 -6.226627e+01 1.325008e+01 -1.433861e+01 -2.064440e+02 -1.507223e+02 1.039533e+02 3.790029e+01 6.902706e+00 1.052250e+02 -2.001281e+00 -5.051626e+01 3.858346e+00 -1.825502e+00 1.447444e+01 3.094644e+01 2.712568e+01 3.785330e+00 -5.497044e+00 -2.335844e+01 -2.515889e+01 -3.515834e+00 1.025685e+01 8.411429e+00 1.167850e+01 1.062501e+00 -2.521906e-01 1.419104e+00 2.218799e+00 3.562409e+00 1.299326e+01 1.094015e+01 -6.529467e+00 -8.180621e-01 -7.525294e+00 -1.025175e+01 2.395716e+00 4.806614e+00 3.167765e-01 -4.884746e-02
<VARIANCE> 39
 9.011733e+03 1.346047e+04 8.711878e+03 1.439159e+04 1.608464e+04 1.758829e+04 2.033810e+04 1.852201e+04 1.520052e+04 1.459478e+04 1.522807e+04 1.078585e+04 2.117575e+00 2.532938e+02 5.137138e+02 3.939129e+02 7.463558e+02 9.408159e+02 8.852305e+02 1.017217e+03 1.077823e+03 1.107235e+03 1.001542e+03 9.863094e+02 8.248290e+02 3.432867e-02 3.828954e+01 7.860725e+01 7.462180e+01 1.004141e+02 1.211663e+02 1.846353e+02 1.725228e+02 1.829908e+02 1.808566e+02 1.724906e+02 1.814326e+02 1.624967e+02 6.133494e-03
<GCONST> 3.159466e+02
<MIXTURE> 32 1.029191e-02
<MEAN> 39
 -9.256710e+01 -8.739445e+01 -1.843643e+02 1.503246e+01 -3.907743e+01 4.139441e+00 -1.081339e+01 1.657620e+01 9.883969e+00 -3.114657e+00 -3.824799e+01 -1.342879e+01 -6.972773e+00 -1.542573e+00 4.506866e+00 3.661261e+00 8.853550e-01 1.174571e+00 2.018677e+00 7.474003e-01 2.367005e-02 3.419964e-01 8.708867e-01 2.020340e-01 -2.673346e-01 -1.178873e-01 7.017317e+00 6.171114e+00 2.887686e+00 2.759734e+00 3.227291e+00 1.144607e+00 1.078589e+00 -2.188384e+00 -1.949162e+00 -3.783399e-01 1.310061e+00 7.122388e-02 1.877738e-01
<VARIANCE> 39
 1.059313e+04 1.663192e+04 2.576601e+04 1.923138e+04 1.809584e+04 1.797839e+04 1.530711e+04 1.469483e+04 1.479044e+04 1.256014e+04 1.024940e+04 8.456334e+03 3.042139e+00 2.632323e+02 3.675485e+02 6.339266e+02 7.071888e+02 7.713253e+02 8.535668e+02 8.819596e+02 9.912706e+02 1.001269e+03 9.094213e+02 8.200322e+02 6.942510e+02 9.265345e-02 7.399788e+01 9.556345e+01 1.432097e+02 1.400523e+02 1.724788e+02 2.006876e+02 1.910597e+02 2.000532e+02 2.160048e+02 1.944153e+02 1.699861e+02 1.492527e+02 2.037961e-02
<GCONST> 3.207810e+02
<MIXTURE> 33 1.191284e-02
<MEAN> 39
 -1.370863e+02 2.819360e+02 6.871934e+00 -2.402999e+02 -1.836233e+01 -9.362778e+01 -1.096143e+02 3.339754e+01 1.449605e+01 1.207203e+01 5.744649e+01 -4.763179e-01 -1.755811e+00 1.332930e+00 -2.534561e+00 -2.130451e+00 -3.081462e+00 -1.376211e+00 -1.293482e-02 3.212146e+00 2.510687e+00 3.522981e+00 2.800900e+00 1.720116e-01 1.765931e+00 -3.682062e-02 1.078838e+00 -1.171709e+00 1.170464e+00 1.982330e+00 -2.036993e-01 1.496099e+00 6.728366e-01 -1.899502e+00 -2.442390e-01 -3.572610e-01 -1.707834e+00 7.611713e-01 -1.133036e-02
<VARIANCE> 39
 1.002851e+04 1.998377e+04 1.483292e+04 1.826666e+04 1.153220e+04 1.419228e+04 1.374484e+04 9.685185e+03 1.323051e+04 1.125084e+04 9.341416e+03 1.063479e+04 1.488544e+00 5.041976e+01 3.866725e+02 1.589895e+02 3.241133e+02 2.867131e+02 4.793236e+02 3.818530e+02 3.796155e+02 4.668012e+02 4.634916e+02 4.600215e+02 4.315862e+02 1.547286e-02 6.636254e+00 1.561001e+01 1.608255e+01 2.641050e+01 2.930213e+01 3.710189e+01 3.996181e+01 4.423919e+01 4.820879e+01 5.275588e+01 5.191080e+01 5.165091e+01 1.189157e-03
<GCONST> 2.843803e+02
<MIXTURE> 34 9.549093e-03
<MEAN> 39
 -1.791422e+02 -2.705829e+02 -5.080403e+01 8.571426e+01 4.530205e+01 7.041410e+01 -2.730297e+00 -1.024720e+02 1.468512e+02 1.522894e+01 2.454600e+01 -1.193351e+01 -6.865802e-01 2.938901e+00 7.568683e+00 -1.721498e+00 -6.347487e+00 1.164670e+00 1.551692e+00 -5.226122e+00 4.501549e+00 -2.977947e+00 2.158422e+00 1.244719e+01 8.391376e+00 -1.137360e-01 3.053214e+00 4.414654e+00 -3.897278e+00 -5.452519e+00 -1.708436e+00 2.472296e+00 1.519044e-01 1.523476e+00 -9.154749e+00 -5.176484e+00 -1.738579e+00 -3.291032e+00 -3.943065e-02
<VARIANCE> 39
 9.101238e+03 5.855402e+03 8.010800e+03 1.592286e+04 1.258100e+04 1.374525e+04 1.563428e+04 1.257461e+04 9.988519e+03 1.168669e+04 1.073928e+04 1.203110e+04 1.056368e+00 1.608094e+02 2.282988e+02 3.602688e+02 8.038798e+02 5.900759e+02 7.187498e+02 6.362330e+02 5.901888e+02 8.191249e+02 9.671989e+02 9.257320e+02 9.580104e+02 1.978215e-02 1.955017e+01 2.480942e+01 3.374711e+01 5.163029e+01 7.479282e+01 8.549744e+01 1.032537e+02 1.055622e+02 8.966168e+01 1.387837e+02 1.461930e+02 1.520646e+02 1.880720e-03
<GCONST> 3.006098e+02
<MIXTURE> 35 1.206452e-02
<MEAN> 39
 1.768593e+02 1.711815e+02 -3.897876e+02 -7.727092e+01 -4.159428e+01 -9.495417e+00 -2.653399e+01 -1.401356e+02 -1.612094e+01 6.245145e+01 8.820011e+01 5.468214e+01 -1.700619e+00 9.830533e-01 9.066263e-01 -2.523529e+00 -1.619453e+00 -2.818054e+00 3.940172e+00 2.799380e+00 1.643954e+00 1.306604e-01 -2.033540e+00 1.126041e-01 -4.169378e-01 -4.212800e-02 -1.410504e+00 -2.675139e+00 4.212565e+00 2.506283e+00 1.319476e+00 -3.060843e+00 -1.169350e+00 5.994453e+00 3.282123e+00 -1.760762e+00 -6.872273e+00 -2.639542e+00 -2.213484e-02
<VARIANCE> 39
 1.096110e+04 1.302277e+04 3.337591e+04 1.109232e+04 1.403853e+04 1.478702e+04 1.595980e+04 1.390437e+04 1.866639e+04 1.627505e+04 1.284237e+04 1.093614e+04 2.262699e+00 1.109567e+02 3.465900e+02 4.088052e+02 3.314952e+02 5.094162e+02 5.775503e+02 5.916981e+02 6.852303e+02 8.965858e+02 8.575953e+02 7.836469e+02 7.090298e+02 2.207396e-02 1.087929e+01 2.838894e+01 4.418076e+01 4.675038e+01 6.308588e+01 9.125983e+01 8.220274e+01 1.068813e+02 1.038689e+02 1.147263e+02 1.117765e+02 9.774461e+01 1.739302e-03
<GCONST> 3.019425e+02
<MIXTURE> 36 7.488309e-03
<MEAN> 39
 -2.051467e+02 -4.283335e+01 -1.031177e+02 6.178556e+01 -5.148688e+01 -3.479996e+00 4.391918e+01 7.460853e+01 3.273927e+01 1.283448e+01 -2.069832e+01 -1.224364e+01 -5.338284e+00 -1.096163e+01 -5.220550e+00 -1.362828e+01 1.649326e+00 5.335785e-01 -4.247899e+00 -1.404074e+00 -1.606639e-01 2.666761e+00 -1.233159e-01 -6.981907e-01 4.816281e-01 1.606676e-02 1.411623e+01 1.039812e+01 4.677773e+00 -3.460888e+00 1.905321e+00 -4.052105e+00 -9.142809e+00 -1.499151e+01 -7.897039e+00 -3.751906e+00 -1.257869e+00 -4.477633e-01 1.786633e-01
<VARIANCE> 39
 1.189132e+04 2.768088e+04 1.519212e+04 1.564865e+04 1.277862e+04 1.258008e+04 1.161337e+04 9.718996e+03 1.109205e+04 1.062821e+04 1.118949e+04 8.751850e+03 1.748536e+00 1.006083e+03 7.340338e+02 8.067513e+02 9.761526e+02 1.115463e+03 1.011457e+03 1.094324e+03 1.154064e+03 1.067087e+03 1.004978e+03 9.261633e+02 7.982204e+02 1.295726e-01 1.277376e+02 1.338694e+02 2.035187e+02 1.920989e+02 1.995765e+02 2.204230e+02 2.099097e+02 1.827639e+02 2.253513e+02 2.337353e+02 2.360838e+02 2.038420e+02 3.016539e-02
<GCONST> 3.257058e+02
<MIXTURE> 37 9.702052e-03
<MEAN> 39
 -4.677120e+01 1.879730e+02 4.195379e+01 -8.474147e+01 -1.276742e+02 -9.867350e+01 -1.313209e+02 -5.095885e+01 7.141017e+01 1.010722e+02 1.083368e+02 9.281548e+01 -2.524758e+00 1.897451e+00 -6.669669e-01 -4.121254e+00 -1.376010e+00 -1.909623e+00 -1.546695e+00 1.217385e+00 2.301235e+00 3.028101e+00 1.410910e+00 2.551695e-01 -1.386061e+00 -2.182985e-02 -8.909312e-01 -2.043382e+00 -3.593608e+00 1.899152e-01 4.307379e+00 7.076077e+00 1.035770e+01 4.502424e+00 -4.329838e+00 -8.753913e+00 -1.063683e+01 -8.587100e+00 -4.044192e-02
<VARIANCE> 39
 2.199400e+04 2.273443e+04 2.899335e+04 3.054654e+04 2.749897e+04 2.584442e+04 2.078781e+04 2.353994e+04 2.193323e+04 1.836826e+04 1.781730e+04 1.039125e+04 4.008312e+00 1.381924e+02 3.968358e+02 5.118446e+02 5.269269e+02 6.216618e+02 7.077067e+02 9.364567e+02 1.039186e+03 1.021103e+03 9.066172e+02 7.849000e+02 8.045842e+02 5.141746e-02 2.482622e+01 4.224102e+01 6.313077e+01 8.695473e+01 9.642757e+01 1.205434e+02 1.051741e+02 1.281601e+02 1.447951e+02 1.467414e+02 1.419126e+02 1.195502e+02 4.983141e-03
<GCONST> 3.161019e+02
<MIXTURE> 38 8.688662e-03
<MEAN> 39
 -3.961781e+02 1.432602e+02 -5.609581e+01 -8.084811e+01 -1.669565e+01 -1.127875e+01 -3.639147e+01 -2.929141e+01 1.911932e+01 -2.117031e+01 -1.515803e+01 5.338815e+00 -3.370668e+00 3.105591e+01 1.215466e+01 3.205574e+01 -9.349268e+00 -4.177185e+00 2.149998e+00 -2.468006e+00 -6.942067e+00 4.468006e+00 5.678268e+00 9.250145e-01 -1.488914e+00 3.180492e-02 2.419027e+01 2.537473e-01 1.014717e+01 2.994694e+00 -5.301980e+00 -1.818995e+00 2.053851e-01 -1.359033e+00 -8.796083e-01 3.179153e+00 1.170150e+00 -2.032511e+00 4.875122e-02
<VARIANCE> 39
 6.422796e+03 1.151165e+04 1.614432e+04 1.453013e+04 1.590560e+04 1.430637e+04 1.229484e+04 1.139792e+04 1.121646e+04 1.125483e+04 1.059536e+04 9.463859e+03 1.462351e+00 1.593583e+03 1.074531e+03 1.005175e+03 1.061823e+03 1.117929e+03 1.132141e+03 1.138318e+03 1.029451e+03 1.015338e+03 1.059237e+03 9.342751e+02 8.701691e+02 1.486611e-01 1.507958e+02 1.878479e+02 1.964169e+02 2.106192e+02 2.108868e+02 2.549989e+02 2.789878e+02 2.325373e+02 2.408403e+02 2.276154e+02 2.321502e+02 2.033695e+02 3.177707e-02
<GCONST> 3.274571e+02
<MIXTURE> 39 8.072011e-03
<MEAN> 39
 -1.653492e+00 -7.494992e+01 -2.706284e+02 4.288609e+01 -8.658991e+01 -1.570945e+02 1.582904e+02 1.258895e+02 -3.445624e+01 -4.254411e+01 -5.517459e+01 5.089077e+01 -5.370760e-01 -4.326993e+00 -1.025762e+01 9.919205e-01 3.814400e+00 4.754682e+00 8.078053e+00 8.575813e+00 1.672065e+00 -1.154620e+01 -8.414746e+00 1.819661e+00 3.309108e-01 -2.716894e-02 1.833913e+00 3.721434e+00 7.161023e+00 -5.205560e-01 -1.538465e+00 2.084147e+00 -5.871990e+00 -8.087021e+00 2.678880e+00 7.574605e+00 3.628057e+00 -3.754926e+00 -5.625217e-02
<VARIANCE> 39
 9.695497e+03 1.095417e+04 1.601502e+04 8.904114e+03 2.871363e+04 1.950472e+04 1.565947e+04 1.398443e+04 1.652118e+04 1.333464e+04 1.351314e+04 1.073252e+04 9.679461e-01 1.361689e+02 2.219184e+02 7.121724e+02 3.645199e+02 7.956415e+02 5.589625e+02 8.171055e+02 8.085703e+02 8.552563e+02 7.761766e+02 7.676837e+02 6.825556e+02 2.296577e-02 1.689471e+01 2.838133e+01 5.519643e+01 5.065843e+01 8.929604e+01 8.342131e+01 9.731530e+01 9.859000e+01 1.094935e+02 1.049381e+02 1.003493e+02 1.194905e+02 3.217292e-03
<GCONST> 3.034381e+02
<MIXTURE> 40 7.415985e-03
<MEAN> 39
 3.179112e+01 -4.554663e+01 -1.627437e+02 8.517363e+01 -1.809845e+02 -1.843152e+02 1.241944e+02 1.363920e+02 -5.147253e+01 -3.257749e+00 4.344895e+01 1.518450e+01 -1.137767e+00 -1.348087e+01 3.882933e+00 4.477488e+01 -2.097799e+01 -3.529743e+01 2.273594e+01 3.490952e+01 -2.635252e+01 -2.122301e+01 1.674240e+01 9.750891e+00 -1.365291e+01 -9.920937e-02 -1.092059e+00 1.000959e+01 4.631544e+00 -8.770938e+00 1.454776e+01 1.615437e+01 -1.683830e+01 -1.965454e+01 1.289748e+01 6.060330e+00 -1.111535e+01 -3.649805e+00 -7.622853e-02
<VARIANCE> 39
 9.062228e+03 1.457268e+04 1.723670e+04 1.327604e+04 1.378375e+04 2.832340e+04 2.164471e+04 1.643288e+04 1.948327e+04 1.557563e+04 1.504014e+04 1.661147e+04 1.594504e+00 5.428123e+02 8.007738e+02 2.905275e+03 1.209962e+03 1.834927e+03 2.009800e+03 1.987755e+03 2.443535e+03 1.759635e+03 1.715699e+03 1.767250e+03 1.497848e+03 7.369480e-02 6.488481e+01 9.895354e+01 1.730790e+02 2.299817e+02 2.346069e+02 3.459333e+02 3.435249e+02 3.078298e+02 3.008865e+02 2.901152e+02 2.611397e+02 2.739283e+02 1.045670e-02
<GCONST> 3.343299e+02
<MIXTURE> 41 1.112175e-02
<MEAN> 39
 -3.063902e+02 1.237381e+02 -1.337291e+02 4.988881e+01 -5.339537e+01 6.070725e+00 -3.010669e+01 1.436060e+01 -1.876993e+01 7.829295e+00 -1.675312e+01 4.666645e+00 -2.760278e+00 -3.368358e+00 1.614093e+00 -2.619135e+00 9.485693e-01 8.136386e-02 -7.556136e-01 9.580023e-01 -8.274429e-01 3.250623e-01 -2.567140e-01 8.900993e-01 1.277411e-01 1.450966e-01 -1.564455e-01 -1.092511e-01 8.360839e-01 -2.229183e+00 4.950428e-01 -6.458540e-01 -2.438273e-01 -8.998559e-01 7.256750e-01 -5.906057e-01 5.736381e-01 -7.046429e-01 -4.975369e-02
<VARIANCE> 39
 8.585188e+03 8.501873e+03 5.038193e+03 4.067026e+03 4.902152e+03 6.002781e+03 5.336406e+03 5.414869e+03 5.213616e+03 5.271422e+03 5.343797e+03 4.462365e+03 3.164119e+00 2.158853e+02 2.407529e+02 2.544598e+02 3.330411e+02 4.018929e+02 4.889450e+02 5.304121e+02 5.566961e+02 5.567062e+02 5.580524e+02 5.192654e+02 4.401636e+02 6.877261e-02 2.919659e+01 3.802180e+01 4.154136e+01 5.268959e+01 6.769788e+01 8.145218e+01 8.601871e+01 9.273402e+01 9.433181e+01 9.235950e+01 8.829703e+01 7.316170e+01 5.292696e-03
<GCONST> 2.904695e+02
<MIXTURE> 42 6.840277e-03
<MEAN> 39
 -5.259806e+01 1.107584e+02 1.238383e+02 -1.363882e+02 -2.162973e+02 -5.245246e+01 -2.645922e+01 -8.347022e+01 6.233901e+00 1.154260e+02 -3.501699e+01 3.904464e+01 -1.434490e+00 2.673458e+01 -4.292620e+01 -2.759496e+01 2.253098e+01 -3.054486e+01 -2.449823e+01 4.851194e+01 1.308401e+01 -1.466590e+01 2.045294e+01 5.965418e-02 -1.333436e+01 1.809385e-01 -4.881790e+00 6.255402e-01 -1.601897e+01 1.089228e+01 1.987177e+01 -4.264769e+00 1.371787e+00 1.340380e+01 -3.450089e+00 -1.363972e+01 3.294755e+00 -3.342994e+00 -9.651206e-02
<VARIANCE> 39
 9.249355e+03 1.070054e+04 1.247243e+04 1.231024e+04 1.138545e+04 1.641354e+04 2.227512e+04 1.513110e+04 2.166664e+04 1.216629e+04 1.189446e+04 1.112993e+04 1.705788e+00 6.775070e+02 8.677196e+02 1.237646e+03 1.911556e+03 1.364162e+03 1.689404e+03 1.511273e+03 1.769744e+03 1.382546e+03 1.394185e+03 1.322282e+03 1.104228e+03 2.156675e-01 1.413059e+02 1.256999e+02 1.762713e+02 1.814059e+02 1.956505e+02 3.086878e+02 3.087188e+02 2.269782e+02 3.301200e+02 2.358784e+02 2.145738e+02 2.214012e+02 1.693140e-02
<GCONST> 3.310627e+02
<MIXTURE> 43 5.436963e-03
<MEAN> 39
 -1.161651e+02 7.656631e+01 -1.453190e+01 7.992270e+00 -3.632712e+01 -7.530305e+01 -9.817898e+01 -1.318075e+02 -1.544078e+02 -1.527415e+02 -1.303918e+02 -7.508173e+01 -6.679627e+00 -3.153095e+01 -2.038864e+01 -2.109941e+01 -1.223548e+01 -1.263149e+01 3.612397e+00 7.240385e+00 1.594963e+01 1.898395e+01 1.559407e+01 1.439057e+01 7.996889e+00 -6.854004e-02 5.198523e+00 1.221680e+00 -3.969525e+00 -4.138519e+00 -2.871404e+00 2.297174e-01 4.568972e+00 5.535006e+00 9.749757e+00 1.132096e+01 7.791262e+00 3.973814e+00 3.925290e-01
<VARIANCE> 39
 1.195545e+04 1.804713e+04 1.221049e+04 1.264107e+04 1.282004e+04 1.372304e+04 1.637313e+04 1.574948e+04 1.522017e+04 1.435380e+04 1.597389e+04 1.859784e+04 3.461205e+00 1.120218e+03 1.476562e+03 1.250362e+03 1.382494e+03 1.553928e+03 1.591382e+03 1.755532e+03 1.803340e+03 1.696716e+03 1.594787e+03 1.386033e+03 1.466454e+03 5.191337e-01 2.086456e+02 2.317663e+02 2.368483e+02 2.477078e+02 2.508882e+02 3.066918e+02 3.386465e+02 3.360236e+02 3.280934e+02 3.034027e+02 2.989545e+02 3.085832e+02 6.148981e-02
<GCONST> 3.398898e+02
<MIXTURE> 44 6.553399e-03
<MEAN> 39
 -9.983222e+01 -9.037262e+01 -1.955669e+02 -5.938530e+01 -1.504951e+02 3.664433e+00 -1.001325e+02 -1.906181e+02 -2.929032e+02 -4.464196e+02 -4.569720e+02 -3.581988e+02 -7.219519e-01 -8.118438e+00 -3.707201e+01 -1.685224e+01 2.145674e+01 1.373033e+01 2.766290e+01 3.001954e+01 2.738994e+01 2.933726e+01 -4.453484e+00 -4.503365e+01 -8.134900e+01 3.673756e-01 -4.078485e+00 5.626050e+00 8.451502e+00 7.321653e+00 7.256054e+00 -5.827333e+00 4.680014e-01 1.078374e+01 2.392122e+01 3.986566e+01 3.942576e+01 2.651001e+01 -1.870575e-01
<VARIANCE> 39
 1.883663e+04 2.484577e+04 2.337579e+04 3.079979e+04 2.295491e+04 2.436738e+04 2.582583e+04 2.301640e+04 2.183641e+04 1.843312e+04 1.907862e+04 2.219756e+04 8.942185e-01 9.389988e+02 1.666504e+03 1.641542e+03 1.828270e+03 1.715129e+03 2.003104e+03 2.485327e+03 3.190832e+03 3.116445e+03 3.616591e+03 3.266505e+03 3.461783e+03 1.295216e-01 1.825152e+02 2.024494e+02 2.428946e+02 4.142137e+02 3.598722e+02 4.443263e+02 5.371558e+02 5.544061e+02 4.414093e+02 4.213214e+02 5.420795e+02 6.432924e+02 2.793046e-02
<GCONST> 3.504355e+02
<MIXTURE> 45 9.155641e-03
<MEAN> 39
 1.470371e+02 6.242727e+01 -3.651083e+02 -5.183565e+01 1.532277e+01 2.391898e+01 1.677306e+01 -3.828395e+01 5.880381e+01 3.090564e+01 -6.618054e+00 -2.574965e+01 -2.835689e+00 -2.587741e+00 1.526678e-02 8.160292e+00 2.033447e+00 1.488447e+00 2.962124e+00 -1.886966e-01 4.111998e+00 1.045108e+00 -9.585028e-01 -1.768304e+00 -6.264993e-01 -1.658350e-01 -5.108037e+00 -1.527907e+00 5.959363e+00 3.515675e+00 1.110201e+00 2.994724e-01 -4.182248e-01 1.101627e+00 -2.058441e+00 -8.239799e-01 3.082975e-01 1.847019e+00 -6.372335e-02
<VARIANCE> 39
 1.058475e+04 1.776183e+04 4.108099e+04 1.770335e+04 1.801138e+04 1.468246e+04 1.001326e+04 1.132467e+04 1.215402e+04 1.081796e+04 1.103746e+04 7.669487e+03 3.349302e+00 3.059574e+02 4.606328e+02 7.152471e+02 5.241512e+02 5.324421e+02 5.250831e+02 4.509191e+02 4.923309e+02 5.190428e+02 5.394854e+02 5.910502e+02 5.081057e+02 1.168201e-01 5.091652e+01 5.575262e+01 8.801215e+01 7.133242e+01 7.285661e+01 7.469868e+01 6.951554e+01 8.144285e+01 8.558027e+01 8.052660e+01 8.261410e+01 7.445681e+01 1.012826e-02
<GCONST> 3.066901e+02
<MIXTURE> 46 1.161200e-02
<MEAN> 39
 -1.314454e+02 9.982193e+00 -5.871902e+01 -1.788428e+01 -3.426288e+01 -1.788444e+01 -1.570177e+01 -2.871321e+01 -1.422443e+01 -1.223153e+01 -3.699693e+00 -1.805510e+00 -7.458795e+00 -6.884746e-01 1.151622e+00 3.312840e+00 2.998199e+00 3.185607e+00 2.199928e+00 2.429020e+00 3.708779e+00 2.845916e+00 3.109313e+00 2.612471e+00 1.192534e+00 -1.000620e-01 7.934268e-01 9.590542e-01 2.864073e-01 6.128165e-01 7.463724e-01 1.451504e+00 1.124562e+00 1.258024e+00 1.672045e+00 8.828640e-01 -6.277986e-01 -1.220185e+00 5.621431e-02
<VARIANCE> 39
 1.045462e+04 1.960704e+04 1.297849e+04 1.434502e+04 1.366573e+04 1.487462e+04 1.496649e+04 1.249124e+04 1.267187e+04 1.008511e+04 9.250786e+03 6.988672e+03 3.098330e+00 1.087003e+02 2.310294e+02 2.946730e+02 4.164593e+02 5.276057e+02 6.618304e+02 7.468658e+02 7.678074e+02 7.943965e+02 7.662868e+02 6.936667e+02 5.995479e+02 3.678730e-02 1.809661e+01 3.271729e+01 4.520988e+01 6.670934e+01 8.602101e+01 1.013064e+02 1.232526e+02 1.181057e+02 1.245690e+02 1.214151e+02 1.116189e+02 9.619364e+01 4.297275e-03
<GCONST> 3.031515e+02
<MIXTURE> 47 7.116416e-03
<MEAN> 39
 -1.598829e+02 -1.479273e+02 -1.058718e+02 -1.082626e+02 7.008093e+01 2.061214e+02 -2.244281e+01 -9.191018e+01 7.512938e+01 -4.543423e+01 6.667484e+01 6.999161e+00 -9.999467e-01 -1.397214e+00 -1.014312e+01 6.267779e+00 1.097064e+01 3.481401e+00 1.487039e+00 -5.032404e+00 -8.952466e+00 3.527730e+00 3.074561e+00 4.959330e+00 1.284266e+01 -5.462708e-02 5.361401e+00 1.115684e+01 3.898457e+00 3.599530e+00 -1.247706e+01 -2.031688e+01 4.441856e+00 8.248226e+00 -1.129712e+00 3.184251e+00 -1.157955e+01 -9.682872e+00 -6.544628e-02
<VARIANCE> 39
 8.818244e+03 7.772416e+03 5.657631e+03 1.198423e+04 1.632538e+04 1.074260e+04 1.363309e+04 1.433897e+04 1.243582e+04 1.043590e+04 1.255288e+04 1.642637e+04 1.277375e+00 4.190503e+02 2.278193e+03 7.479500e+02 2.874918e+03 1.279612e+03 1.179198e+03 1.392887e+03 2.406835e+03 1.748352e+03 1.462238e+03 1.412841e+03 1.574341e+03 5.240342e-02 3.425605e+01 6.673722e+01 9.830332e+01 1.364948e+02 1.338106e+02 1.960487e+02 2.134698e+02 2.215027e+02 2.668541e+02 2.492996e+02 2.475103e+02 2.283394e+02 5.337236e-03
<GCONST> 3.229111e+02
<MIXTURE> 48 1.180542e-02
<MEAN> 39
 2.186734e+01 4.688822e+01 5.235704e+01 3.955258e+01 -2.297874e+02 -1.376425e+02 9.216206e+01 -5.111098e+01 -1.633558e+01 8.102152e+01 5.256918e+01 -3.558848e+00 -1.894431e+00 5.591866e+00 6.630247e+00 1.372398e+00 1.293862e+01 1.574593e+01 2.016214e+00 -8.186107e+00 3.230854e+00 5.758841e+00 -6.033588e+00 -2.251497e-02 6.283138e+00 -1.922617e-01 -9.043012e+00 1.462279e-01 -1.575614e+01 -4.495004e+00 2.249600e+01 9.345375e+00 -1.152222e+01 6.889717e+00 4.837090e+00 -9.758948e+00 -1.029718e+01 -1.900376e-01 -1.199762e-01
<VARIANCE> 39
 7.244422e+03 1.213542e+04 1.799618e+04 1.551189e+04 1.511753e+04 2.199393e+04 1.741657e+04 2.279191e+04 2.230135e+04 1.623813e+04 1.601865e+04 1.246509e+04 1.798919e+00 1.428650e+03 1.489531e+03 3.531248e+03 2.334026e+03 2.162130e+03 3.673912e+03 2.096822e+03 2.942536e+03 1.752428e+03 1.648640e+03 1.601483e+03 1.370203e+03 4.115314e-01 1.443641e+02 2.013176e+02 2.881242e+02 2.903345e+02 2.374552e+02 3.671857e+02 3.815522e+02 4.507342e+02 4.111326e+02 3.468325e+02 3.116229e+02 2.476887e+02 2.753700e-02
<GCONST> 3.434253e+02
<MIXTURE> 49 5.980858e-03
<MEAN> 39
 -1.693056e+02 -5.997317e+01 -2.218450e+02 -5.559910e+01 -1.363729e+02 -1.180742e+02 -2.135689e+02 -3.236164e+02 -4.384434e+02 -4.745620e+02 -2.691056e+02 8.329684e+01 -6.345010e-01 3.128310e+00 -4.824337e+00 2.689355e+00 1.267872e+01 1.390981e+01 2.118667e+01 2.734481e+01 3.563263e+01 1.880649e+01 -1.822803e+01 -7.097025e+01 -9.563239e+01 3.975131e-03 3.498778e+00 4.399103e+00 5.428751e+00 -5.518074e-01 -2.097966e+00 -7.228680e-01 1.902791e+00 5.575672e+00 1.338992e+01 1.975887e+01 8.581173e+00 -1.315905e+01 -5.206365e-02
<VARIANCE> 39
 2.000959e+04 5.066872e+04 2.369738e+04 2.880171e+04 2.231309e+04 2.839146e+04 2.694938e+04 1.814733e+04 2.461469e+04 1.343672e+04 2.206034e+04 3.439762e+04 1.140362e+00 3.675097e+02 7.816691e+02 8.776318e+02 1.129083e+03 1.138673e+03 1.537236e+03 2.062906e+03 1.737333e+03 1.831012e+03 1.662809e+03 3.320000e+03 5.502659e+03 3.784207e-02 4.875365e+01 9.980276e+01 1.390981e+02 1.705505e+02 1.874607e+02 2.612711e+02 3.388741e+02 2.861400e+02 4.650587e+02 3.426601e+02 4.829161e+02 5.935925e+02 6.760787e-03
<GCONST> 3.378367e+02
<MIXTURE> 50 8.033326e-03
<MEAN> 39
 4.366792e+01 1.017816e+02 2.568596e+01 1.401812e+02 3.723432e+01 -1.311848e+01 4.754674e+01 1.932562e+00 6.223189e+00 2.871998e+01 3.879788e+00 2.089297e+01 -3.932476e+00 -3.394693e+01 -1.305504e+01 2.949445e+00 6.173408e+00 1.241507e+01 2.908890e+01 2.473572e+00 1.241556e+01 -3.757434e+00 -1.095383e+01 -8.400037e+00 -8.469311e+00 -8.023418e-01 -1.086334e+01 -8.207925e+00 -1.561606e+01 -1.763802e+01 -1.219817e+01 -6.554892e+00 -3.801835e+00 -1.372251e+00 1.173209e+00 -1.326048e+00 -1.971607e+00 -2.485083e+00 4.365598e-02
<VARIANCE> 39
 6.859739e+03 1.450022e+04 1.885383e+04 1.126833e+04 1.636639e+04 1.910862e+04 1.546239e+04 1.348036e+04 1.339209e+04 1.025730e+04 1.018290e+04 8.261454e+03 1.851233e+00 1.131522e+03 9.352775e+02 1.829133e+03 1.457227e+03 2.174962e+03 1.822476e+03 1.699762e+03 1.659732e+03 1.519528e+03 1.310210e+03 1.207994e+03 1.000033e+03 2.438720e-01 1.243398e+02 1.273365e+02 1.790573e+02 1.441653e+02 2.197293e+02 2.581013e+02 2.488023e+02 2.469774e+02 2.205643e+02 1.955035e+02 1.753318e+02 1.590880e+02 4.187622e-02
<GCONST> 3.309307e+02
<MIXTURE> 51 9.921173e-03
<MEAN> 39
 -8.416502e+01 1.234490e+02 5.958704e+00 -2.627607e+02 -1.454543e+02 -1.992871e+01 -1.611715e+01 3.173433e+01 1.032746e+02 4.532343e+01 -3.661174e+01 1.547760e+01 -2.013262e+00 2.627908e+00 -2.175697e+01 -1.150012e+01 2.267052e+00 1.187727e+00 2.364460e+01 2.679268e+01 5.452921e+00 -4.797925e-01 -6.123028e+00 -1.798920e+01 -7.568913e+00 -8.746206e-02 5.088813e-01 1.210083e+00 1.827669e+00 9.020767e+00 6.086326e+00 -2.932117e-01 -1.946573e+00 -6.533132e+00 -8.597680e+00 -2.323418e+00 3.837211e+00 1.357814e+00 -3.776852e-02
<VARIANCE> 39
 1.256663e+04 1.313801e+04 1.592510e+04 1.553349e+04 1.769309e+04 1.477006e+04 1.872243e+04 1.417620e+04 1.164189e+04 1.257123e+04 1.450995e+04 1.126930e+04 3.478531e+00 1.529750e+02 5.468160e+02 3.880392e+02 5.557608e+02 6.570722e+02 7.814340e+02 8.648245e+02 8.351187e+02 9.170026e+02 9.299283e+02 8.758215e+02 7.442714e+02 4.549866e-02 2.092838e+01 4.229666e+01 4.993093e+01 6.370960e+01 7.409336e+01 1.060513e+02 1.165445e+02 1.107456e+02 1.153009e+02 1.238363e+02 1.365317e+02 1.233146e+02 3.841055e-03
<GCONST> 3.088943e+02
<MIXTURE> 52 8.655556e-03
<MEAN> 39
 4.891250e+01 1.665689e+02 1.231076e+02 -7.216241e+01 1.310455e+02 -1.886569e+02 2.546320e+01 -2.378725e+01 -6.262023e+01 9.550758e+01 -9.663566e+01 3.036340e+01 -2.128194e+00 4.008074e+00 4.114319e+00 7.441228e+00 5.809589e+00 8.394951e+00 -6.247045e+00 1.480651e+00 -4.411985e+00 -2.051917e-01 -1.378681e+00 -1.801182e-01 2.122450e+00 -4.876582e-02 -2.983233e+00 7.557069e-01 -8.849627e+00 2.832974e+00 -1.024693e+01 1.040104e+01 -2.323298e+00 1.075928e+00 2.866144e+00 -4.562356e+00 6.727837e+00 -3.017488e+00 1.015858e-03
<VARIANCE> 39
 5.553861e+03 8.708351e+03 1.550179e+04 1.558929e+04 2.211701e+04 2.083740e+04 2.230830e+04 2.657953e+04 2.219210e+04 1.755965e+04 1.453483e+04 1.336517e+04 1.555013e+00 2.194438e+02 5.793387e+02 7.873495e+02 7.025948e+02 1.279444e+03 1.356224e+03 1.222148e+03 1.128554e+03 1.107792e+03 1.067662e+03 9.018912e+02 7.718323e+02 1.569818e-02 4.307346e+01 1.201084e+02 1.258343e+02 1.431064e+02 2.050249e+02 1.923220e+02 2.043371e+02 2.065337e+02 1.969228e+02 1.853634e+02 1.544384e+02 1.362771e+02 3.781934e-03
<GCONST> 3.193578e+02
<MIXTURE> 53 5.403907e-03
<MEAN> 39
 -9.888466e+01 -1.539598e+02 -1.900074e+02 8.147265e+01 -9.121780e+01 7.462622e+00 -1.192594e+02 -1.204949e+02 -1.575158e+02 -2.620264e+02 -3.800855e+02 -4.167731e+02 -9.544142e-01 3.856756e+00 1.831299e+00 -6.736867e-01 -1.031259e+00 7.414073e-01 2.353757e+00 -2.767298e+00 2.744569e+00 -2.129527e+00 2.766906e+00 1.465882e+00 3.541148e-02 -5.020899e-02 1.015100e+00 1.017621e+00 -2.288953e-01 -1.591433e+00 6.783156e-01 2.491706e-01 2.844190e-01 1.466677e-02 -8.580378e-02 3.210251e-01 7.280456e-01 1.386729e+00 -1.187776e-02
<VARIANCE> 39
 2.203107e+04 4.190533e+04 3.460038e+04 2.506561e+04 1.599548e+04 1.629948e+04 1.635459e+04 2.187369e+04 2.099637e+04 2.399017e+04 2.089437e+04 1.215689e+04 1.404723e+00 7.620103e+01 1.375869e+02 1.895610e+02 2.539701e+02 2.708665e+02 2.993929e+02 3.798117e+02 4.561212e+02 5.156915e+02 5.562806e+02 5.027219e+02 4.229381e+02 1.056982e-02 8.273998e+00 1.387713e+01 2.377324e+01 2.822415e+01 3.703926e+01 4.215574e+01 5.214474e+01 5.877243e+01 7.573838e+01 8.801745e+01 8.136667e+01 6.908737e+01 7.535655e-04
<GCONST> 2.922772e+02
<MIXTURE> 54 8.520089e-03
<MEAN> 39
 1.114840e+02 2.878944e+01 -1.906102e+02 3.951392e+01 -1.589287e+01 -3.266324e+01 1.555832e+01 1.265203e+01 4.352258e+01 4.823922e+01 1.414581e+01 1.381396e+01 -1.998841e+00 4.451326e+01 1.128760e+00 -4.940460e+01 -7.712333e+00 3.504928e-01 -1.604381e+01 1.375337e+00 2.268018e+00 9.485834e+00 1.200467e+01 8.920054e+00 1.171607e+01 9.403279e-01 -2.014993e+01 -7.791186e+00 1.750617e-01 -2.145487e+00 -2.656069e+00 6.026052e-01 -4.892936e-01 -2.106747e+00 -5.047799e+00 -4.816086e+00 -2.932130e+00 -2.483585e-01 -1.781786e-01
<VARIANCE> 39
 1.052358e+04 1.526714e+04 2.960740e+04 1.610166e+04 1.704643e+04 2.136166e+04 1.591943e+04 1.195407e+04 1.161704e+04 9.563986e+03 1.040550e+04 8.196153e+03 1.645561e+00 1.299046e+03 2.042238e+03 1.690991e+03 1.374571e+03 1.732076e+03 1.779290e+03 1.902859e+03 1.934804e+03 1.818261e+03 1.653701e+03 1.746564e+03 1.418516e+03 2.486914e-01 1.250483e+02 1.490207e+02 2.531040e+02 1.999021e+02 2.225477e+02 2.823822e+02 2.374497e+02 2.226400e+02 2.205189e+02 1.950191e+02 1.910695e+02 1.685106e+02 2.902740e-02
<GCONST> 3.344724e+02
<MIXTURE> 55 6.475640e-03
<MEAN> 39
 -5.691423e+01 -1.824417e+02 -2.108116e+02 9.921668e+01 2.878165e+01 -3.700605e+01 6.439452e+01 -3.310225e+01 -3.977652e+00 -1.215489e+01 -4.364302e+00 2.011833e+01 -1.176030e+00 1.289642e+00 1.018136e+00 -3.118318e-01 4.448911e-01 -1.386245e+00 1.654538e+00 -9.738126e-01 3.668170e-01 7.248186e-01 -4.600125e-01 -2.417517e-01 -5.014178e-01 -3.168227e-02 4.777250e-01 3.077134e-01 2.379417e-01 -8.084475e-01 -7.360648e-02 4.072002e-01 -3.007043e-05 8.561679e-02 -1.614337e-01 2.700479e-01 -6.584716e-02 -9.517297e-02 -6.133412e-03
<VARIANCE> 39
 1.668134e+04 3.094295e+04 3.729254e+04 2.001037e+04 1.843480e+04 1.910686e+04 1.540231e+04 1.591442e+04 1.897061e+04 1.150961e+04 1.157834e+04 9.510208e+03 9.549778e-01 2.226893e+01 2.652001e+01 5.614946e+01 5.502287e+01 6.102430e+01 6.801740e+01 7.174110e+01 8.275752e+01 8.744124e+01 8.659795e+01 7.709668e+01 7.083324e+01 4.073281e-03 2.165543e+00 2.592851e+00 4.584676e+00 5.845181e+00 7.048511e+00 8.098896e+00 8.791935e+00 1.008358e+01 1.014444e+01 1.008934e+01 1.022433e+01 9.415969e+00 3.282145e-04
<GCONST> 2.470273e+02
<MIXTURE> 56 3.567350e-03
<MEAN> 39
 -1.120647e+02 3.637374e+01 -1.795202e+02 -1.747678e+02 -2.623844e+02 -2.526239e+02 -3.336834e+02 -3.460913e+02 -2.818130e+02 -1.192836e+02 8.415065e+01 2.052710e+02 -1.411940e+00 1.951893e+00 -2.357576e+01 -3.023848e+01 -1.356927e+01 -2.188633e+01 -2.109878e+01 -5.278656e+01 -8.973164e+01 -8.458687e+01 -4.959426e+01 2.942450e+01 8.708771e+01 9.082180e-01 -1.299162e+01 -6.913293e+00 5.373460e+00 1.963939e+01 2.114058e+01 2.241588e+01 2.525446e+01 2.044910e+01 8.593718e+00 -8.728274e+00 -2.019399e+01 -1.877626e+01 -2.025507e-01
<VARIANCE> 39
 1.589331e+04 3.381715e+04 1.721891e+04 2.334248e+04 1.957038e+04 3.331937e+04 2.004734e+04 2.282541e+04 3.685159e+04 6.011656e+04 5.243746e+04 2.908181e+04 1.209309e+00 1.507807e+03 2.231952e+03 1.592991e+03 2.437064e+03 2.405990e+03 3.941679e+03 3.124032e+03 2.687750e+03 3.296833e+03 6.439091e+03 7.610860e+03 4.470349e+03 2.593453e-01 1.685868e+02 2.533763e+02 2.566471e+02 3.449475e+02 3.292488e+02 5.324497e+02 4.871368e+02 6.008939e+02 7.539406e+02 8.369236e+02 8.029474e+02 8.138740e+02 3.653874e-02
<GCONST> 3.599061e+02
<MIXTURE> 57 9.145104e-03
<MEAN> 39
 -1.003356e+02 -2.116714e+02 -7.254893e+01 -3.951885e+01 2.265757e+00 1.052832e+02 9.510275e+01 -1.059073e+02 -3.024993e+01 4.238247e+01 -2.142459e+01 1.793213e+01 -1.383051e+00 4.629253e-01 6.535172e+00 5.961472e+00 -9.413924e+00 -4.364832e+00 1.012461e+01 -3.881222e+00 -1.066927e+00 6.374953e+00 -3.947073e+00 -4.606554e+00 4.381001e-01 -8.494602e-02 1.465173e+00 2.637033e+00 -6.292619e-02 -2.043583e+00 -1.585077e+00 -3.214802e-01 2.514324e-01 3.018701e+00 1.110408e+00 -2.122802e+00 -4.012421e-01 2.465029e-01 -1.696569e-02
<VARIANCE> 39
 1.049583e+04 9.725450e+03 5.816497e+03 1.443171e+04 1.462352e+04 1.454916e+04 2.370986e+04 1.765896e+04 2.276405e+04 1.232709e+04 1.132303e+04 7.132124e+03 1.488627e+00 7.110651e+01 1.230655e+02 1.300404e+02 3.202271e+02 2.361324e+02 3.041056e+02 2.497183e+02 3.409261e+02 3.970555e+02 3.499447e+02 3.018124e+02 2.540326e+02 1.400407e-02 7.934316e+00 1.120937e+01 1.425599e+01 2.324732e+01 2.594329e+01 3.364399e+01 3.507572e+01 4.194054e+01 4.623100e+01 4.597202e+01 4.236752e+01 3.862244e+01 9.991805e-04
<GCONST> 2.790281e+02
<MIXTURE> 58 8.067932e-03
<MEAN> 39
 -1.321795e+01 -1.764531e+02 -8.471215e+01 2.188452e+01 -3.041349e+01 -3.293156e+01 1.243609e+02 -8.831125e+00 -7.713867e+01 5.877459e+01 -5.748815e+01 1.527080e+01 -2.875044e+00 3.144951e+00 7.820903e+00 5.724892e+00 -2.766395e+00 -1.978500e+00 3.931115e+00 2.528523e+00 -1.220073e+00 6.415600e+00 -7.949755e-01 -1.185498e+00 -1.133602e+00 -2.129178e-01 -2.177598e+00 4.587544e+00 3.755203e-01 1.004081e+00 3.558851e-01 1.796731e+00 -2.685424e+00 -1.196055e-02 3.152159e+00 -2.329292e+00 2.082830e+00 -2.137204e-02 -4.719152e-02
<VARIANCE> 39
 1.351910e+04 2.335467e+04 1.786372e+04 1.781761e+04 3.376000e+04 2.369561e+04 1.985719e+04 2.171408e+04 1.503294e+04 1.219538e+04 8.600685e+03 6.554469e+03 2.877604e+00 2.781999e+02 3.211000e+02 3.347163e+02 4.022502e+02 4.472329e+02 4.995197e+02 4.321166e+02 5.348491e+02 5.445338e+02 4.686709e+02 4.117851e+02 3.630320e+02 1.236040e-01 4.530039e+01 4.375135e+01 5.037975e+01 5.703448e+01 7.923441e+01 8.468393e+01 7.889297e+01 8.525229e+01 8.642819e+01 7.270236e+01 6.110466e+01 5.851427e+01 9.299137e-03
<GCONST> 3.047214e+02
<MIXTURE> 59 6.013736e-03
<MEAN> 39
 1.874583e+01 3.208409e+01 -5.544196e+01 6.026776e+01 6.493017e+01 7.301568e+01 -1.098699e+02 -6.216616e+01 -8.630165e+01 -1.142751e+02 -1.785457e+02 -1.624352e+02 -3.433038e+00 -1.861194e+00 9.889712e+00 1.515733e+01 4.336198e+00 7.658356e+00 -3.949345e+00 -9.236133e-01 -7.491294e+00 -3.332527e+00 -3.322468e+00 -6.015627e+00 -7.547293e-01 -2.860681e-01 -5.176733e+00 -1.218302e+00 -1.601835e+00 -3.931530e+00 -5.898817e+00 -4.993161e+00 7.956321e+00 4.808506e+00 5.772691e+00 8.773131e+00 1.234176e+01 1.066686e+01 -4.973141e-02
<VARIANCE> 39
 2.044750e+04 3.750652e+04 3.700791e+04 2.873361e+04 2.733658e+04 1.984191e+04 1.860051e+04 2.311846e+04 2.415868e+04 1.358201e+04 1.748318e+04 2.039128e+04 3.733197e+00 4.448938e+02 7.315024e+02 8.515060e+02 1.108631e+03 1.053008e+03 1.152391e+03 1.223121e+03 1.465263e+03 1.404088e+03 1.264632e+03 1.406896e+03 1.451726e+03 1.718732e-01 7.212801e+01 1.043202e+02 1.212797e+02 1.551554e+02 1.789806e+02 1.834854e+02 1.662279e+02 2.408503e+02 2.475349e+02 1.890453e+02 2.033922e+02 2.102301e+02 1.551494e-02
<GCONST> 3.325621e+02
<MIXTURE> 60 7.766590e-03
<MEAN> 39
 -4.682402e+01 2.882209e+02 -7.804700e+01 -2.898486e+01 2.739703e+01 -1.029850e+02 6.674916e+01 -9.489311e+00 5.631684e+01 -3.996715e+01 -1.226041e+02 -2.020519e+02 -1.911068e+00 -9.429962e-01 5.842128e-01 -3.074391e+00 -2.735166e+00 2.385080e+00 -1.071274e+00 2.676733e+00 4.783972e+00 -5.350651e-01 -8.141482e+00 -1.605370e+01 -1.733939e+01 2.312313e-02 2.919380e-01 -1.037206e+01 3.207094e+00 -2.428887e-01 -3.849768e+00 4.611113e+00 -8.784371e+00 -3.390921e+00 -7.000996e+00 1.447588e-01 4.990993e+00 1.092776e+01 -2.062160e-02
<VARIANCE> 39
 1.675262e+04 2.128979e+04 2.540705e+04 2.154289e+04 1.973848e+04 2.177059e+04 2.172336e+04 2.145911e+04 2.714845e+04 2.264841e+04 2.917471e+04 2.343630e+04 1.402812e+00 4.804574e+02 1.396481e+03 1.594523e+03 1.549600e+03 1.336208e+03 1.699740e+03 1.645387e+03 1.644545e+03 1.969736e+03 1.860642e+03 2.182027e+03 1.999389e+03 5.249830e-02 8.679044e+01 1.448044e+02 2.184163e+02 2.462986e+02 2.353251e+02 2.927055e+02 2.827096e+02 2.898595e+02 3.388344e+02 3.529065e+02 3.708826e+02 2.564054e+02 9.818980e-03
<GCONST> 3.386032e+02
<MIXTURE> 61 6.675008e-03
<MEAN> 39
 -2.343336e+02 -3.003226e+02 -8.604684e+01 8.521926e+01 -3.032206e+01 -1.296322e-01 -8.901248e+01 -2.207626e+02 -8.936053e+01 -2.589465e+02 -3.146631e+02 -3.584031e+02 1.947951e-01 -2.052499e+00 -4.626614e+00 1.078805e+01 1.346806e+01 2.332653e+00 -3.377039e-01 9.546328e+00 1.245691e+01 1.643847e+01 2.291145e+01 2.264427e+01 8.336594e+00 9.992249e-03 6.585340e+00 7.766814e+00 -4.456440e+00 -7.372281e+00 -1.766045e+00 2.851114e+00 2.366707e+00 7.200809e+00 -4.385129e+00 2.294162e-02 7.697585e+00 1.466123e+01 -6.741239e-02
<VARIANCE> 39
 8.365560e+03 4.721914e+03 1.143022e+04 1.809562e+04 1.370201e+04 1.224969e+04 1.610352e+04 1.323322e+04 1.720065e+04 2.310276e+04 2.082008e+04 1.896883e+04 3.685686e-01 3.486409e+02 3.732939e+02 7.768024e+02 1.248446e+03 8.942726e+02 9.746956e+02 1.142623e+03 1.257411e+03 1.567954e+03 1.832644e+03 1.969874e+03 3.056114e+03 2.393930e-02 3.322316e+01 5.222617e+01 8.040005e+01 8.693979e+01 1.485921e+02 1.437669e+02 1.884555e+02 1.966196e+02 2.681062e+02 3.057820e+02 3.728890e+02 3.998226e+02 4.039174e-03
<GCONST> 3.197110e+02
<MIXTURE> 62 4.913576e-03
<MEAN> 39
 -2.394922e+02 2.411666e+01 -9.567378e+01 -1.300854e+00 -4.243048e+01 -1.299547e+01 -4.713546e+01 -8.029613e+00 -3.101925e+01 -1.856213e+01 -2.804395e+01 -2.033494e+01 -4.619503e+00 4.527818e+01 2.620558e+01 6.571524e+00 -5.712420e+00 -1.477925e+01 -2.786017e+01 -4.007418e+01 -5.597571e+01 -4.786271e+01 -5.655776e+01 -5.405651e+01 -4.431324e+01 6.009432e-01 1.291668e+01 -8.901712e-01 -3.399980e+00 -1.190692e+00 -3.278910e+00 -2.337846e+00 -1.735651e+00 -1.129121e+01 -1.176847e+01 -2.249065e+01 -2.619111e+01 -2.516809e+01 2.156936e-01
<VARIANCE> 39
 2.010018e+04 2.738496e+04 1.546781e+04 1.460662e+04 1.204376e+04 1.274826e+04 1.085642e+04 1.159911e+04 1.225030e+04 1.134843e+04 1.019514e+04 8.723111e+03 3.034127e+00 1.117739e+03 1.500934e+03 1.298329e+03 1.630971e+03 1.565990e+03 1.604113e+03 1.449859e+03 1.553239e+03 1.389269e+03 1.261280e+03 1.164554e+03 1.326375e+03 3.993452e-01 1.726157e+02 2.345249e+02 2.397133e+02 2.472860e+02 2.319824e+02 2.619405e+02 2.667244e+02 3.237210e+02 3.704002e+02 3.333544e+02 2.474467e+02 2.280611e+02 3.060218e-02
<GCONST> 3.358320e+02
<MIXTURE> 63 5.990874e-03
<MEAN> 39
 -2.438166e+01 8.479893e+01 2.384851e+01 7.486279e+01 7.174383e+01 6.218196e+01 5.026057e+01 1.897016e+01 2.613068e+01 2.506509e+01 -1.188954e+01 -3.125277e+00 -6.195526e+00 -2.728284e+01 -2.680149e+01 -1.567729e+01 -8.299907e+00 -9.435263e+00 -9.153550e-01 -3.897173e+00 3.060454e+00 -2.200749e+00 -2.405016e+00 -2.014154e+00 -1.187798e+00 -7.364316e-01 -1.457550e+00 -2.768633e+00 -7.394253e+00 -9.055952e+00 -9.489985e+00 -9.338890e+00 -6.624802e+00 -5.284342e+00 -2.922131e+00 -2.118544e+00 -6.696394e-02 3.914095e-02 4.782567e-02
<VARIANCE> 39
 7.850350e+03 1.924382e+04 1.757555e+04 1.652892e+04 1.405912e+04 1.695099e+04 1.347739e+04 1.173719e+04 1.196145e+04 1.053319e+04 1.071552e+04 8.440391e+03 2.624488e+00 3.881509e+02 4.099780e+02 6.282517e+02 7.334860e+02 8.594496e+02 1.102994e+03 1.010153e+03 1.077686e+03 1.087435e+03 9.803323e+02 8.984094e+02 7.507783e+02 1.256992e-01 5.562881e+01 7.357538e+01 8.248386e+01 9.155209e+01 1.270300e+02 1.569787e+02 1.657755e+02 1.678551e+02 1.689697e+02 1.616109e+02 1.486968e+02 1.297806e+02 1.958628e-02
<GCONST> 3.175415e+02
<MIXTURE> 64 5.348448e-03
<MEAN> 39
 -6.373977e+01 3.262805e+01 -1.708146e+02 2.433593e+01 -1.674327e+01 5.065020e+01 6.344071e+01 4.787089e+01 4.008647e+01 4.415752e+00 -4.833315e+01 -1.434280e+02 -1.094768e+00 1.078309e+01 1.300558e+01 4.715553e+00 1.312648e+00 4.477092e+00 5.790497e+00 1.348252e+01 1.667646e+01 2.063828e+01 4.253978e+01 7.152700e+01 8.101388e+01 -9.018167e-02 -4.875151e-01 1.083156e+00 2.050238e+00 -2.819507e+00 -6.152773e+00 -1.116350e+01 -1.283017e+01 -1.194060e+01 -1.027473e+01 -1.375485e+01 -1.309652e+01 -5.199279e+00 -2.213171e-02
<VARIANCE> 39
 1.980082e+04 7.223808e+04 2.848011e+04 3.268364e+04 2.127032e+04 2.009383e+04 1.653028e+04 1.523645e+04 1.948901e+04 1.156491e+04 1.359151e+04 1.058069e+04 1.379598e+00 2.093271e+02 3.944474e+02 4.100197e+02 5.902405e+02 7.639165e+02 1.054090e+03 1.156892e+03 1.185246e+03 1.109316e+03 1.007182e+03 9.064736e+02 1.091737e+03 2.378768e-02 2.604431e+01 4.720133e+01 6.356046e+01 1.015271e+02 1.045845e+02 1.225501e+02 1.696894e+02 1.701476e+02 2.234973e+02 2.200953e+02 2.381983e+02 2.034083e+02 2.804309e-03
<GCONST> 3.177388e+02
<MIXTURE> 65 1.198318e-02
<MEAN> 39
 -1.219441e+02 3.771477e+02 1.232222e+02 -1.040610e+02 2.206018e+01 -4.701254e+01 -2.087450e+02 1.908493e+00 -8.364853e+01 -4.714831e+01 4.276593e+01 -4.818387e+01 -2.499652e+00 4.638641e-01 3.037801e-01 -3.907256e-01 -6.789720e-01 7.416531e-02 -2.142723e+00 -8.902609e-01 -1.202209e+00 -2.375743e+00 1.781248e-01 -1.219755e+00 4.400241e-01 -2.964291e-02 4.708763e-01 -1.902506e+00 -7.117873e-01 -7.977928e-01 -2.879208e-01 -7.827057e-01 2.764125e+00 -2.125000e-01 2.054555e+00 1.056384e+00 -1.222473e+00 1.324860e+00 -1.502066e-02
<VARIANCE> 39
 1.280893e+04 1.629276e+04 1.945867e+04 1.893277e+04 1.311455e+04 1.843860e+04 1.256873e+04 1.437980e+04 1.619488e+04 1.458827e+04 1.139510e+04 1.109789e+04 2.550179e+00 9.016575e+01 1.598902e+02 1.749874e+02 3.033388e+02 3.061633e+02 2.945848e+02 3.266369e+02 3.927314e+02 3.831371e+02 4.248595e+02 3.939526e+02 4.122360e+02 3.124208e-02 1.460881e+01 2.393248e+01 3.203775e+01 4.585872e+01 4.816038e+01 5.710587e+01 6.047466e+01 6.922136e+01 6.913708e+01 7.319570e+01 6.585806e+01 6.269305e+01 2.209372e-03
<GCONST> 2.920541e+02
<MIXTURE> 66 1.384465e-02
<MEAN> 39
 -1.528513e+01 9.544566e+01 -1.880349e+01 -1.235784e+02 -5.685609e+01 -7.006796e+01 5.328466e+01 -3.369199e+01 8.789679e+00 7.497234e+01 -5.972290e+01 3.309624e+01 -3.233154e+00 2.030005e+00 1.095806e-01 1.667214e+00 1.536439e+00 -2.367748e-01 6.313870e-01 2.398986e+00 -2.308184e+00 1.320213e+00 -7.523353e-01 5.830359e-02 1.912186e-01 -7.938147e-02 8.891860e-02 5.503382e-01 -3.556573e-01 1.706894e+00 5.325227e-01 5.449101e-01 -1.644008e+00 -5.115415e-01 -2.028018e-01 -1.463439e+00 2.239241e+00 -9.993942e-01 -5.068319e-03
<VARIANCE> 39
 1.819589e+04 3.151695e+04 3.399877e+04 2.441413e+04 3.950870e+04 3.034298e+04 1.975605e+04 2.539595e+04 1.894448e+04 1.426414e+04 1.234800e+04 9.174353e+03 3.434804e+00 1.002854e+02 1.932297e+02 2.232578e+02 2.494138e+02 2.984580e+02 3.536721e+02 4.242526e+02 3.873937e+02 4.066704e+02 3.965006e+02 3.947189e+02 3.224427e+02 3.074711e-02 1.156344e+01 1.726171e+01 2.331478e+01 2.853645e+01 3.682610e+01 4.445721e+01 4.839741e+01 5.127379e+01 5.202069e+01 5.030663e+01 5.035056e+01 4.529932e+01 1.820848e-03
<GCONST> 2.934603e+02
<MIXTURE> 67 1.037463e-02
<MEAN> 39
 1.945829e+02 2.048575e+02 -2.922999e+02 -1.100041e+02 -7.070564e+01 2.310764e+01 1.422827e+01 -8.993300e+01 -1.238218e+02 -2.621556e+01 1.720840e+01 9.176989e+01 -2.011322e+00 -2.717789e+00 8.183321e-01 5.656626e+00 -1.305853e+00 7.741671e-01 -3.262624e+00 3.673360e+00 2.712461e+00 4.755605e+00 -5.811732e-01 -3.154832e+00 -5.321869e+00 -9.575624e-02 -4.324386e+00 -5.866054e+00 4.975543e+00 8.357540e+00 5.306824e+00 -7.922422e+00 -8.824100e+00 3.001369e+00 1.280511e+01 8.294178e+00 -2.257070e+00 -8.778836e+00 -3.474218e-02
<VARIANCE> 39
 9.887528e+03 1.249630e+04 2.433715e+04 1.055321e+04 1.522776e+04 1.385290e+04 1.613443e+04 2.023901e+04 1.766358e+04 1.609515e+04 1.559608e+04 1.060014e+04 2.595787e+00 1.699713e+02 4.559480e+02 1.106114e+03 5.431928e+02 9.587075e+02 9.272590e+02 1.234968e+03 1.131814e+03 1.116643e+03 1.539839e+03 1.241677e+03 1.046244e+03 5.226213e-02 2.527523e+01 6.389494e+01 1.036492e+02 9.335696e+01 1.204618e+02 1.877547e+02 1.755779e+02 2.091110e+02 1.828841e+02 1.863447e+02 1.989238e+02 1.498793e+02 5.378665e-03
<GCONST> 3.182987e+02
<MIXTURE> 68 1.092510e-02
<MEAN> 39
 -1.304027e+02 4.012334e+02 1.101335e+02 -1.054564e+02 1.633130e+01 -9.459776e+01 -2.005732e+02 -5.447591e+01 -8.876747e+01 -9.900009e+01 3.201934e+01 -4.924866e+01 -1.682128e+00 1.461832e+00 -7.213946e-01 -1.978102e-01 -9.373170e+00 -8.988992e-01 -2.980912e+00 -1.630212e+00 3.775602e+00 -1.317734e+00 2.592521e+00 -2.205630e+00 -1.380387e+00 1.539393e-03 7.055176e-01 -1.076618e+01 -3.405803e+00 2.071240e+00 -2.801379e+00 3.190581e+00 9.391788e+00 4.754202e+00 6.318802e+00 8.748940e+00 -1.597604e+00 4.347036e+00 -9.130830e-02
<VARIANCE> 39
 8.341481e+03 8.387370e+03 9.501880e+03 1.365758e+04 9.457749e+03 1.237126e+04 8.678997e+03 8.292454e+03 1.441985e+04 1.072515e+04 1.091156e+04 1.094585e+04 1.987119e+00 1.871293e+02 7.087894e+02 5.155446e+02 1.094174e+03 6.406944e+02 6.697797e+02 7.723022e+02 7.825008e+02 9.986776e+02 9.594450e+02 9.308495e+02 1.138103e+03 9.958053e-02 5.828089e+01 8.771432e+01 1.026677e+02 1.392018e+02 1.082677e+02 1.261209e+02 1.318483e+02 1.219524e+02 1.615644e+02 1.423969e+02 1.611529e+02 1.491951e+02 1.211170e-02
<GCONST> 3.129235e+02
<MIXTURE> 69 8.836852e-03
<MEAN> 39
 -3.345721e+02 1.396962e+02 -6.378654e+00 6.220144e+00 -1.175924e+01 4.408015e+01 -2.989795e+01 -1.630131e+01 -7.093136e+00 -2.918861e+01 -1.157511e+01 -1.860095e+01 -3.654721e+00 -3.548022e+01 -1.405821e+01 -2.374513e+01 -6.571187e+00 -9.450699e+00 -3.794214e+00 -3.233642e+00 1.482270e+00 6.290735e-01 -7.953505e+00 -4.224970e+00 -1.729048e+00 6.919206e-02 1.797761e+01 -3.443038e+00 1.411168e+00 -5.709999e+00 -4.791394e+00 -8.120559e+00 -3.070576e-01 -2.541031e+00 9.511548e-01 3.200976e+00 -2.232392e-01 1.140669e-02 5.366310e-02
<VARIANCE> 39
 8.662117e+03 2.432540e+04 1.666872e+04 1.546066e+04 1.805094e+04 1.523811e+04 1.475556e+04 1.341942e+04 1.354510e+04 1.230294e+04 1.086037e+04 1.022860e+04 1.600206e+00 1.517693e+03 9.287227e+02 1.040067e+03 1.108672e+03 1.073326e+03 1.138824e+03 1.158892e+03 1.110319e+03 1.210855e+03 1.120667e+03 1.063723e+03 1.015690e+03 1.415017e-01 1.214743e+02 1.486895e+02 1.929716e+02 2.040819e+02 2.129346e+02 2.310894e+02 2.499684e+02 2.352500e+02 2.406998e+02 2.229087e+02 2.132890e+02 1.985542e+02 3.033825e-02
<GCONST> 3.291501e+02
<MIXTURE> 70 1.275984e-02
<MEAN> 39
 -1.666288e+01 -2.334872e+02 -3.033013e+02 2.407810e+02 -1.569246e+01 -7.003181e+00 4.563826e+01 4.918839e+01 -3.526252e+01 -7.584966e+01 6.760155e+01 4.251659e+01 -1.897492e+00 1.054191e+01 7.238860e+00 -1.184115e+00 -5.640084e-01 3.790164e+00 9.235067e-01 -1.302460e+01 1.012736e+01 1.674052e+00 -3.532429e+00 -8.457041e+00 1.469930e+00 -2.238330e-01 5.675102e-01 4.400105e+00 5.147813e+00 -7.414939e+00 -3.103678e-01 1.520869e+00 -6.161962e-01 -3.655984e+00 3.025126e+00 5.462083e+00 -7.224720e+00 -5.912305e+00 -4.528356e-02
<VARIANCE> 39
 9.655824e+03 7.179737e+03 1.673523e+04 1.012768e+04 1.733620e+04 1.144282e+04 1.601683e+04 1.618287e+04 1.393595e+04 1.308744e+04 1.156248e+04 9.699420e+03 2.930227e+00 2.702365e+02 2.516781e+02 6.673238e+02 5.699666e+02 5.848253e+02 5.775437e+02 9.048474e+02 9.641763e+02 9.432609e+02 8.643107e+02 8.730475e+02 8.542291e+02 5.722256e-02 3.038027e+01 3.121978e+01 5.463602e+01 7.709726e+01 9.503246e+01 1.015882e+02 1.090901e+02 1.362103e+02 1.286194e+02 1.361311e+02 1.364375e+02 1.393845e+02 4.229530e-03
<GCONST> 3.085888e+02
<MIXTURE> 71 1.016514e-02
<MEAN> 39
 -1.271509e+02 1.165683e+01 -4.401454e+01 -2.957568e+01 -5.402116e+01 -3.193276e+01 -2.532334e+01 -1.161729e+01 -4.542060e+00 2.185979e-02 -9.214175e+00 -5.434422e+00 -8.214417e+00 -2.324444e+01 -1.280612e+01 -1.678931e+01 -1.020392e+01 -1.403339e+01 -6.835199e+00 -9.293776e+00 -5.690086e+00 -3.344837e+00 -7.555398e-02 2.445770e+00 1.567842e+00 1.885826e-01 6.683697e+00 8.820940e+00 2.155866e+00 4.886899e+00 2.564508e+00 1.411782e+00 2.556296e+00 -2.106876e+00 -1.211662e+00 -1.485802e+00 -2.438687e+00 -1.661141e+00 4.842294e-01
<VARIANCE> 39
 5.833853e+03 7.758469e+03 6.637312e+03 7.418826e+03 8.267936e+03 8.682495e+03 8.855129e+03 8.301218e+03 8.138388e+03 8.348046e+03 7.904175e+03 7.009277e+03 2.489582e+00 9.263984e+02 9.135897e+02 9.869406e+02 9.902870e+02 1.086597e+03 1.121230e+03 1.136431e+03 1.055100e+03 1.024855e+03 9.777337e+02 9.157379e+02 7.614342e+02 5.370533e-01 2.060368e+02 2.099303e+02 1.952040e+02 1.797056e+02 1.995904e+02 2.210015e+02 2.228238e+02 2.114008e+02 2.006767e+02 2.108685e+02 1.883227e+02 1.744008e+02 5.236403e-02
<GCONST> 3.227957e+02
<MIXTURE> 72 1.305079e-02
<MEAN> 39
 -1.023500e+02 3.893606e+02 -1.395170e+02 -4.992417e+01 -1.442406e+01 -2.019757e+02 7.089707e+01 -3.588610e+01 8.620691e+01 8.661442e+01 1.895572e+01 5.836843e+01 -2.582668e+00 1.939617e+00 -2.810025e+00 1.532117e+00 -3.644293e+00 1.003785e+00 -1.977827e+00 9.063540e-01 -6.552417e-01 -1.635659e+00 -2.807074e+00 -1.697358e+00 -2.945809e+00 -6.383885e-02 1.016531e+00 -6.081580e+00 4.524333e+00 -6.612661e-01 1.311291e+00 5.553242e+00 -4.018680e+00 5.607390e-01 -3.718508e+00 -4.172501e+00 -2.972616e-01 -5.147311e+00 -2.203099e-02
<VARIANCE> 39
 1.209161e+04 1.326645e+04 1.430441e+04 1.870487e+04 1.560934e+04 1.247461e+04 1.179819e+04 1.322505e+04 1.573489e+04 1.275382e+04 1.257638e+04 1.365298e+04 2.191584e+00 1.684468e+02 4.833141e+02 4.604366e+02 8.553116e+02 6.190233e+02 8.591863e+02 8.741092e+02 9.909140e+02 8.576238e+02 9.000635e+02 9.613033e+02 1.105699e+03 4.897888e-02 2.121390e+01 4.511754e+01 5.761405e+01 8.129681e+01 9.109802e+01 1.207194e+02 1.119612e+02 1.199133e+02 1.234996e+02 1.369834e+02 1.503688e+02 1.516915e+02 4.116056e-03
<GCONST> 3.106591e+02
<MIXTURE> 73 1.211741e-02
<MEAN> 39
 -2.732883e+01 1.925255e+02 -8.505912e+01 -5.459892e+01 -3.280588e+00 -2.313396e+01 -3.918426e+01 -4.188738e+01 -2.146310e+01 -8.285117e+01 -1.417409e+02 -1.671253e+02 -2.860256e+00 1.217579e+00 1.679281e+00 1.117763e+00 1.017798e+00 -1.023318e+00 -5.778596e-01 -6.547385e-02 -7.286114e-01 -2.765411e-01 -2.461847e+00 -3.718601e+00 -2.556809e+00 -4.096923e-02 9.302521e-02 -7.030091e-01 5.137380e-01 1.769919e-01 -6.209112e-01 -6.287942e-01 5.410756e-01 -6.908737e-01 -9.824451e-01 2.128677e+00 4.671257e+00 5.149260e+00 -9.197529e-03
<VARIANCE> 39
 2.897087e+04 3.726903e+04 3.986816e+04 2.121983e+04 3.224986e+04 2.594279e+04 2.407706e+04 2.678377e+04 2.931486e+04 1.819091e+04 2.587167e+04 2.944953e+04 3.528536e+00 6.909383e+01 1.818072e+02 2.564027e+02 3.243981e+02 3.831443e+02 4.638908e+02 5.728800e+02 6.943502e+02 7.142724e+02 6.457626e+02 7.187161e+02 6.070211e+02 1.803762e-02 8.550311e+00 2.304319e+01 3.493179e+01 4.612918e+01 6.306135e+01 7.972681e+01 8.617386e+01 1.112961e+02 1.186597e+02 1.016974e+02 1.242344e+02 1.085011e+02 1.266026e-03
<GCONST> 3.060255e+02
<MIXTURE> 74 7.381310e-03
<MEAN> 39
 -1.137855e+02 2.888722e+00 -4.090894e+01 4.941949e+00 -3.154065e+00 1.266096e+01 -1.000914e+01 -3.068030e+01 -1.361863e+01 -1.755607e+01 -3.953357e+01 -3.712575e+01 -7.844280e+00 -5.189753e+00 -5.143506e+00 -2.146592e+00 -2.710068e+00 -4.209978e+00 -5.344419e+00 -4.498767e+00 -2.417158e+00 -4.213246e+00 -2.009886e+00 -3.643686e-01 2.100399e+00 -1.969411e-01 4.503339e-01 2.717197e-01 -1.505008e+00 -1.736563e+00 -1.688486e+00 -1.450194e+00 -5.631948e-01 -9.175820e-02 -6.344533e-02 2.951931e-01 1.851199e+00 2.018823e+00 5.059715e-02
<VARIANCE> 39
 9.309678e+03 2.053673e+04 1.685364e+04 1.647827e+04 1.551157e+04 1.507619e+04 1.602293e+04 1.403832e+04 1.423421e+04 1.152510e+04 1.177910e+04 9.639903e+03 2.669543e+00 1.785917e+02 3.365349e+02 4.268950e+02 5.849124e+02 6.850464e+02 8.021495e+02 8.932750e+02 9.875515e+02 9.634304e+02 9.351736e+02 9.051920e+02 8.052399e+02 8.164997e-02 1.085325e+01 2.167366e+01 3.089423e+01 4.480749e+01 5.807728e+01 7.004935e+01 8.116487e+01 9.242825e+01 9.133789e+01 8.523921e+01 8.697165e+01 7.738555e+01 2.229281e-03
<GCONST> 3.037746e+02
<MIXTURE> 75 1.178165e-02
<MEAN> 39
 -1.190400e+02 -3.029151e+01 -8.575729e+01 -2.269633e+02 -4.709335e+00 1.503992e+02 4.332964e+01 3.537347e+00 3.461714e+01 -5.164024e+01 -7.044185e+00 2.412347e+01 -1.551102e+00 6.085702e+00 1.840799e+01 4.249574e+00 -1.154380e+01 -8.090277e+00 -6.122157e+00 -5.084224e+00 1.411050e+01 6.605523e+00 -3.601737e+00 -4.286811e+00 -5.699374e+00 -1.465278e-01 2.697018e+00 3.013576e+00 3.604481e+00 4.881737e+00 -3.275558e+00 -8.118538e+00 -3.306567e+00 -1.168802e+00 2.532527e+00 6.224391e+00 5.803815e-01 -4.077200e+00 -2.778259e-02
<VARIANCE> 39
 8.811854e+03 1.297131e+04 9.231905e+03 1.066630e+04 1.988587e+04 1.288532e+04 1.483191e+04 1.601705e+04 1.337626e+04 1.261013e+04 1.857677e+04 1.102836e+04 1.732777e+00 1.311165e+02 5.232842e+02 2.495304e+02 5.393633e+02 5.493319e+02 6.863819e+02 7.199764e+02 8.052224e+02 8.246282e+02 7.503276e+02 7.285747e+02 6.776579e+02 2.046191e-02 1.567078e+01 3.541327e+01 3.612981e+01 4.666036e+01 5.763776e+01 6.719823e+01 8.844005e+01 1.039610e+02 1.072189e+02 1.014525e+02 1.352657e+02 1.083645e+02 2.118974e-03
<GCONST> 3.013955e+02
<MIXTURE> 76 7.377667e-03
<MEAN> 39
 -1.015052e+02 1.487386e+02 -8.122394e+01 -3.531451e+01 -6.179602e+01 -1.796037e+02 -1.797315e+02 -2.844397e+02 -3.276864e+02 -3.876882e+02 -4.065860e+02 -3.028548e+02 -1.854518e+00 -2.388412e-01 -8.445609e+00 -1.128452e+01 -3.218707e+00 -5.350018e-01 -3.679290e+00 -3.003702e+00 -2.226878e+01 -3.260049e+01 -4.854134e+01 -4.070382e+01 -2.256366e+01 2.667718e-01 -6.527968e+00 -9.206709e+00 -3.159310e+00 4.646001e-01 9.329891e-02 1.454389e+01 1.435212e+01 2.210543e+01 2.483257e+01 2.557183e+01 2.547563e+01 1.700087e+01 -9.637953e-02
<VARIANCE> 39
 1.745265e+04 3.662202e+04 1.994354e+04 2.230146e+04 1.683521e+04 1.922248e+04 2.090067e+04 2.514278e+04 2.217708e+04 2.104275e+04 1.619494e+04 2.208654e+04 1.477977e+00 8.819108e+02 1.410969e+03 1.642224e+03 1.650154e+03 1.391358e+03 1.863524e+03 2.214582e+03 2.504942e+03 2.553370e+03 2.925519e+03 3.845667e+03 5.111062e+03 1.830036e-01 1.761019e+02 1.996670e+02 2.101508e+02 2.468496e+02 2.352281e+02 2.609977e+02 3.490180e+02 4.148439e+02 3.576527e+02 3.892174e+02 3.696484e+02 4.299836e+02 2.590131e-02
<GCONST> 3.460525e+02
<MIXTURE> 77 5.755795e-03
<MEAN> 39
 -1.674678e+02 -3.292587e+02 -1.491097e+02 2.354542e+02 -7.297092e+01 -1.097236e+01 -1.000385e+01 -9.284070e+01 -6.112416e+01 -8.952873e+01 -9.142948e+01 -1.509457e+02 -1.041344e+00 4.619978e+00 -3.400223e-02 -1.848385e+00 2.484076e+00 3.640923e-01 -8.197507e-01 -5.841675e+00 5.086878e+00 -5.521454e+00 -4.962321e+00 -3.973925e+00 -5.498815e-02 -8.127833e-02 2.036601e+00 2.159174e+00 -1.641855e+00 -4.776711e+00 2.360715e+00 2.755882e+00 -1.749237e+00 -7.090932e-01 5.273877e-01 -4.927670e-01 -4.322046e-01 2.521023e+00 -3.261212e-02
<VARIANCE> 39
 1.084884e+04 3.465357e+03 2.002592e+04 1.360743e+04 1.134406e+04 1.398354e+04 1.300175e+04 1.704353e+04 2.035518e+04 2.813967e+04 3.009719e+04 3.527521e+04 2.417380e+00 1.989685e+02 1.152547e+02 4.025633e+02 4.116324e+02 3.771039e+02 4.572053e+02 5.312785e+02 7.709595e+02 9.448315e+02 8.519663e+02 1.054007e+03 1.195504e+03 3.766846e-02 1.782449e+01 2.012904e+01 3.794650e+01 5.082959e+01 5.497266e+01 6.847411e+01 8.411084e+01 1.034870e+02 1.173320e+02 1.549392e+02 1.731382e+02 1.677409e+02 2.635099e-03
<GCONST> 3.047762e+02
<MIXTURE> 78 9.396581e-03
<MEAN> 39
 8.732047e+01 -1.073036e+02 -4.116748e+02 1.085933e+02 -1.197803e+01 1.134076e+02 -1.238665e+02 6.750038e+01 1.252278e+01 4.248709e+01 -5.329445e+01 -6.027475e+01 -2.872863e+00 3.724186e+00 8.443247e+00 1.807974e+01 -1.041678e+01 5.103902e+00 -3.276742e+00 2.475421e+00 -1.389116e+00 -5.635401e+00 4.068853e+00 -4.968733e+00 5.495499e-01 -2.622517e-01 -2.350451e+00 1.455329e+00 5.906878e+00 -1.163737e+00 1.253248e+00 -5.250702e+00 6.504124e+00 -2.676128e+00 -5.416614e-02 -4.237071e+00 2.020691e+00 2.967347e+00 -2.592202e-02
<VARIANCE> 39
 1.211483e+04 1.147684e+04 3.006539e+04 2.147982e+04 1.657265e+04 1.709589e+04 1.151488e+04 1.365035e+04 1.690762e+04 1.469133e+04 1.400187e+04 1.755836e+04 3.115586e+00 1.804486e+02 3.015145e+02 5.011725e+02 6.178179e+02 5.340844e+02 6.277610e+02 6.328423e+02 7.652919e+02 7.895364e+02 9.181704e+02 8.201349e+02 7.988395e+02 5.157769e-02 1.954067e+01 3.299846e+01 5.819767e+01 7.524552e+01 8.057952e+01 9.963959e+01 1.072890e+02 1.230335e+02 1.287793e+02 1.226199e+02 1.268245e+02 1.369184e+02 3.715604e-03
<GCONST> 3.092846e+02
<MIXTURE> 79 6.173930e-03
<MEAN> 39
 -9.123026e+00 -1.802363e+02 -2.936342e+02 1.049599e+02 -1.624410e+01 -6.304179e+01 1.475991e+02 8.290213e+01 -6.325537e+01 -7.933784e+01 2.113583e+00 5.675962e+01 -9.955349e-01 -7.572440e+00 -1.901200e+01 -1.227613e+01 1.771263e+01 1.544415e+01 1.649124e+00 1.988423e+00 3.627929e+00 -1.101637e+01 -1.371396e+01 7.208968e+00 1.447009e+01 1.105594e-01 -3.453156e+00 1.064071e+01 1.432093e+01 -5.482375e+00 -5.080104e-01 3.952153e+00 -1.403833e+01 -1.116973e+01 8.387642e+00 1.009454e+01 -4.239424e+00 -9.568108e+00 -1.755880e-01
<VARIANCE> 39
 9.462151e+03 8.705303e+03 1.484705e+04 1.328163e+04 1.859808e+04 1.250676e+04 1.703036e+04 1.616855e+04 1.946527e+04 1.263532e+04 1.745850e+04 1.223362e+04 2.085425e+00 7.403669e+02 1.005225e+03 2.016393e+03 1.054024e+03 1.747300e+03 1.279000e+03 1.872427e+03 1.856135e+03 1.906324e+03 1.629089e+03 1.561693e+03 1.397680e+03 2.192511e-01 1.159757e+02 9.824609e+01 1.515408e+02 1.926488e+02 2.305340e+02 2.085870e+02 2.569109e+02 2.596217e+02 3.097486e+02 2.581125e+02 3.484897e+02 2.473182e+02 2.953304e-02
<GCONST> 3.333774e+02
<MIXTURE> 80 5.810235e-03
<MEAN> 39
 1.187960e+02 1.806671e+02 -1.811774e+02 -2.112661e+00 -3.719796e+01 -1.466020e+02 -5.503484e+01 -5.477652e+01 -6.907751e+01 3.814502e+01 -6.383515e+00 8.240204e+01 -1.589082e+00 2.156832e+01 2.238931e+01 -4.318768e+01 -1.728767e+01 1.214318e+00 -2.698648e+01 -9.867277e+00 -1.591629e+01 -7.098044e+00 5.356090e+00 -5.912721e+00 5.102005e+00 6.199588e-01 -1.563986e+01 -1.365936e+01 1.267673e+00 -5.263501e-01 -4.117104e-01 9.501270e+00 6.577793e+00 4.227639e+00 7.395191e+00 -1.323576e+00 -1.723071e+00 -8.360132e+00 -2.209449e-01
<VARIANCE> 39
 1.428636e+04 1.823721e+04 3.003289e+04 1.722621e+04 1.450310e+04 2.703559e+04 1.674457e+04 1.770872e+04 1.693179e+04 1.403572e+04 1.176661e+04 8.966838e+03 1.528479e+00 9.519114e+02 1.259634e+03 1.457786e+03 9.051496e+02 1.354777e+03 1.462175e+03 1.620398e+03 1.587097e+03 1.627855e+03 1.360448e+03 1.151779e+03 1.040065e+03 1.226087e-01 1.197529e+02 1.682132e+02 2.369642e+02 1.967537e+02 1.923716e+02 3.544924e+02 2.568349e+02 2.703993e+02 2.551464e+02 2.358868e+02 2.014441e+02 1.628927e+02 2.336637e-02
<GCONST> 3.330425e+02
<MIXTURE> 81 1.281933e-02
<MEAN> 39
 -3.156528e+01 -2.535513e+01 -9.864698e+01 3.987996e+01 -1.021353e+00 -2.998490e+00 3.941301e+01 4.196856e+00 1.651022e+01 3.835301e+01 2.563754e+01 7.272854e+00 -6.060860e+00 -5.180066e+00 5.253080e+00 1.245342e+01 2.541237e+00 4.868198e+00 2.961437e+00 1.246477e+00 1.885966e-01 7.634640e-03 -8.005310e-01 -2.839667e+00 -3.314683e+00 -3.186104e-01 -7.622447e-01 -1.979061e+00 -3.258551e+00 -1.239846e+00 -8.623830e-01 7.264287e-01 -1.454594e+00 -1.001285e+00 -1.672284e+00 -4.411606e+00 -4.445528e+00 -1.982435e+00 4.779217e-02
<VARIANCE> 39
 1.092665e+04 2.825985e+04 2.882104e+04 2.713817e+04 2.717734e+04 2.109721e+04 2.072843e+04 1.791713e+04 1.576221e+04 1.256519e+04 1.134619e+04 9.207285e+03 2.370259e+00 2.199919e+02 4.181905e+02 5.084125e+02 5.788741e+02 7.081684e+02 7.631039e+02 7.482263e+02 8.444357e+02 8.149193e+02 7.875317e+02 7.357384e+02 6.493176e+02 7.289367e-02 2.595640e+01 4.220942e+01 6.078923e+01 8.363705e+01 1.035554e+02 1.177445e+02 1.227684e+02 1.353779e+02 1.300759e+02 1.169859e+02 1.101477e+02 1.025735e+02 5.480003e-03
<GCONST> 3.128585e+02
<MIXTURE> 82 7.298949e-03
<MEAN> 39
 1.571162e+02 1.069999e+02 -3.868010e+02 -7.724878e+00 3.347234e+01 -5.819707e+01 -1.211149e+02 -1.112980e+02 5.329390e+01 1.360453e+02 3.831877e+01 -1.139158e+01 -1.246104e+00 -1.695512e+01 -2.998773e+01 9.626747e+00 3.048957e+01 1.143863e+01 -3.782813e+01 -1.450971e+01 3.264179e+01 3.488025e+01 -1.548406e+00 -2.606727e+01 -1.368633e+01 2.844375e-02 -7.708218e+00 -4.727376e+00 1.893412e+01 3.940979e+00 -9.928971e+00 -4.415217e+00 1.465571e+01 1.531179e+01 -7.443900e+00 -1.780159e+01 -5.861840e+00 5.413357e+00 -8.830190e-02
<VARIANCE> 39
 9.193510e+03 1.276708e+04 2.141563e+04 1.228009e+04 1.304879e+04 2.142304e+04 1.746080e+04 1.805277e+04 2.456302e+04 1.526280e+04 1.919546e+04 1.677947e+04 1.984390e+00 2.813890e+02 6.575496e+02 2.011616e+03 8.359449e+02 1.165093e+03 1.850206e+03 1.599254e+03 1.716430e+03 1.354443e+03 1.862746e+03 1.429510e+03 1.315815e+03 1.099162e-01 7.271677e+01 1.091750e+02 1.652448e+02 1.415892e+02 2.543647e+02 2.915035e+02 2.834458e+02 2.620659e+02 3.339009e+02 2.347834e+02 2.880277e+02 2.399315e+02 1.430009e-02
<GCONST> 3.311683e+02
<MIXTURE> 83 1.239468e-02
<MEAN> 39
 -3.913266e+02 7.545335e+01 -7.242369e+00 -5.544683e+01 -4.910445e+01 2.935688e+01 -4.158107e+01 -6.782443e+00 4.547066e+00 -1.966221e+00 -1.124743e+01 -3.831163e+00 -3.894596e+00 -3.928880e+00 -4.665811e-01 -2.312995e+00 2.671189e+00 1.193064e+00 -1.178455e+00 -1.766116e-01 -1.910275e-01 -3.689325e-01 5.011334e-01 8.214730e-01 8.667096e-01 1.296354e-01 3.040556e+00 -5.349422e-01 -4.139622e-01 1.746718e-01 -7.469495e-01 -9.114851e-01 6.497659e-01 -4.470220e-01 -3.399628e-01 -3.953656e-01 -2.853681e-01 -1.253189e-01 -2.722090e-02
<VARIANCE> 39
 1.011518e+04 1.497098e+04 1.357870e+04 1.212328e+04 1.500404e+04 1.339274e+04 1.111299e+04 1.005267e+04 8.989469e+03 7.792196e+03 7.310813e+03 6.236183e+03 2.787104e+00 1.604129e+02 2.298578e+02 3.391959e+02 4.538274e+02 5.089330e+02 6.180278e+02 6.928139e+02 7.330726e+02 7.576469e+02 6.929229e+02 6.377005e+02 5.729741e+02 4.525663e-02 2.774582e+01 3.214565e+01 4.847150e+01 6.961141e+01 8.973392e+01 1.092409e+02 1.196075e+02 1.301682e+02 1.314871e+02 1.242947e+02 1.107183e+02 1.020190e+02 2.971331e-03
<GCONST> 3.019234e+02
<MIXTURE> 84 7.697886e-03
<MEAN> 39
 8.397710e+01 -2.405086e+01 -3.481507e+02 9.238903e+01 -1.060925e+01 -1.849558e+02 -7.292037e+01 1.097934e+02 1.292021e+02 4.652868e+00 -1.041482e+02 -2.456655e+01 -1.057413e+00 -1.946921e+01 -2.037281e+01 4.052943e+01 1.669768e+01 -2.629891e+01 -2.471665e+01 3.868434e+01 3.155619e+01 -2.456517e+01 -3.080641e+01 6.064762e+00 1.767625e+01 -4.684644e-02 -3.005023e+00 5.571375e+00 1.573870e+01 -8.036265e+00 -6.861386e+00 1.551763e+01 1.169846e+01 -1.728251e+01 -1.914325e+01 4.018774e+00 1.350356e+01 2.202826e-02 -7.772609e-02
<VARIANCE> 39
 9.359086e+03 1.363543e+04 2.163961e+04 1.197071e+04 1.323958e+04 2.647658e+04 1.815483e+04 1.734165e+04 1.807113e+04 1.817465e+04 1.949869e+04 2.410202e+04 1.823687e+00 3.772497e+02 6.977824e+02 1.718273e+03 8.415703e+02 1.406568e+03 1.485308e+03 1.729703e+03 1.856244e+03 1.651531e+03 1.563524e+03 1.724548e+03 1.329187e+03 6.531744e-02 5.339078e+01 7.934187e+01 1.441514e+02 1.740298e+02 1.967580e+02 3.242380e+02 2.467227e+02 2.947620e+02 2.463264e+02 2.840493e+02 2.474528e+02 2.650291e+02 9.245319e-03
<GCONST> 3.303185e+02
<MIXTURE> 85 9.192950e-03
<MEAN> 39
 -3.834212e+01 2.400695e+02 1.163881e+02 -4.093988e+01 -5.880838e+00 -2.906852e+00 -5.376605e+01 -3.579047e+01 3.219514e+01 2.342600e+01 3.762392e+01 2.967883e+01 -3.454605e+00 -2.861291e+01 -1.586372e+01 -7.041159e+00 3.268879e+01 1.273483e+01 2.510961e+01 1.443373e+01 1.068082e+01 -4.662136e+00 -8.519141e+00 -7.911007e+00 -4.723423e+00 -7.321106e-01 -1.239568e+01 -1.292213e+01 -1.625944e+01 -3.168858e+00 -4.556527e+00 -4.462515e+00 3.855494e+00 2.106396e+00 -3.140850e+00 -4.286977e+00 -6.671651e+00 -5.816461e+00 -2.027503e-02
<VARIANCE> 39
 1.067569e+04 1.572848e+04 1.079306e+04 1.295197e+04 1.464894e+04 1.514808e+04 1.444361e+04 1.589896e+04 1.615258e+04 1.392763e+04 1.240104e+04 1.172914e+04 2.268802e+00 1.657786e+03 1.406445e+03 1.240436e+03 1.238274e+03 1.504626e+03 1.463221e+03 1.674471e+03 1.570796e+03 1.654751e+03 1.440709e+03 1.313492e+03 1.190916e+03 1.772493e-01 1.182453e+02 1.410958e+02 1.501950e+02 1.729844e+02 1.820691e+02 2.239577e+02 2.453378e+02 2.529369e+02 2.519010e+02 2.495883e+02 2.158988e+02 2.207932e+02 2.970874e-02
<GCONST> 3.320422e+02
<MIXTURE> 86 8.390330e-03
<MEAN> 39
 1.152428e+02 7.736654e+00 -2.727009e+02 -1.846383e+00 8.971831e+00 5.803755e+01 3.057760e+00 9.966729e+00 -5.703653e+00 1.537567e+01 -1.137514e+00 1.164050e+01 -4.076348e+00 -2.010973e+01 5.301197e+00 4.285602e+01 6.963757e+00 1.000419e+01 -1.105078e-01 6.641090e+00 4.057981e+00 2.057482e+00 -1.934233e+00 -4.747289e+00 -2.644216e+00 -6.530669e-01 -9.709921e+00 -3.130206e+00 4.101680e+00 4.056092e+00 -2.718738e-01 -4.634026e+00 -1.458849e+00 -1.140016e+00 1.416493e+00 -1.018840e+00 -1.864654e+00 -2.466702e+00 -6.709698e-02
<VARIANCE> 39
 1.184010e+04 2.357937e+04 2.504061e+04 2.745349e+04 1.886117e+04 1.632972e+04 1.552281e+04 1.669810e+04 1.613549e+04 1.378406e+04 1.411468e+04 1.101693e+04 3.311083e+00 6.031229e+02 8.935610e+02 9.615869e+02 1.100681e+03 1.083250e+03 1.183804e+03 1.096716e+03 1.204494e+03 1.160441e+03 1.148576e+03 1.075252e+03 9.645295e+02 1.497061e-01 7.840867e+01 9.271409e+01 1.455499e+02 1.594548e+02 1.665930e+02 1.596413e+02 1.747066e+02 1.925363e+02 1.943737e+02 1.815292e+02 1.885719e+02 1.693055e+02 1.845275e-02
<GCONST> 3.273601e+02
<MIXTURE> 87 1.089284e-02
<MEAN> 39
 -6.534901e+01 1.955989e+02 9.971070e+00 -8.937432e+01 -2.038976e+01 -4.441841e+01 -4.270914e+01 -2.953193e+01 8.573529e+00 -7.533257e+00 -1.432476e+01 -3.831556e+01 -2.071499e+00 1.168213e+00 8.003838e-02 1.858383e-01 1.741467e-01 -9.581994e-01 2.039586e-01 4.091688e-01 -9.932128e-01 6.553807e-01 3.084110e-01 5.970349e-01 5.482278e-01 -1.837808e-02 4.480639e-01 4.149644e-02 1.966907e-01 -2.037395e-01 1.211110e-02 -4.107002e-01 -2.901336e-02 -2.253184e-01 -3.234837e-03 3.275559e-01 2.951111e-01 2.070631e-01 -4.903869e-03
<VARIANCE> 39
 1.426023e+04 5.164432e+04 2.621060e+04 2.675264e+04 2.732438e+04 2.572640e+04 2.696332e+04 2.100788e+04 1.989084e+04 1.884728e+04 2.215822e+04 2.185360e+04 1.387326e+00 2.197190e+01 6.325757e+01 6.816640e+01 9.783810e+01 1.123426e+02 1.321598e+02 1.389442e+02 1.564096e+02 1.599482e+02 1.578963e+02 1.554146e+02 1.392140e+02 5.220035e-03 2.485675e+00 5.087096e+00 7.297504e+00 1.042848e+01 1.289236e+01 1.543700e+01 1.838730e+01 1.974761e+01 2.070431e+01 2.085742e+01 2.127662e+01 1.968911e+01 3.405652e-04
<GCONST> 2.657325e+02
<MIXTURE> 88 6.223156e-03
<MEAN> 39
 -8.606597e+01 2.592863e+02 -2.544265e+01 -2.110241e+02 -7.658798e+01 -1.646598e+02 -6.160818e+01 3.505779e+01 1.262512e+02 1.188843e+02 1.309121e+02 5.192549e+01 -1.516729e+00 5.913989e+00 -3.074260e+01 -5.618536e+00 -1.246546e+01 -9.904139e+00 2.015833e+01 1.186493e+01 2.645195e+00 3.805514e+00 -4.116832e+00 -6.537798e+00 2.363898e+00 1.874756e-02 -2.714617e+00 -1.438681e+01 -3.777376e+00 1.671995e+01 6.523887e+00 1.930071e+01 1.260917e+01 -5.488751e+00 -1.204271e+01 -1.635755e+01 -1.740945e+01 -8.814490e+00 -1.258374e-01
<VARIANCE> 39
 8.422491e+03 1.865084e+04 1.433796e+04 1.664858e+04 1.530381e+04 1.965327e+04 1.486631e+04 1.259098e+04 1.496781e+04 1.541187e+04 1.241992e+04 1.257515e+04 1.736535e+00 4.364521e+02 2.135147e+03 1.512586e+03 2.352785e+03 1.581024e+03 2.224520e+03 2.037299e+03 1.593294e+03 1.700565e+03 1.998537e+03 1.998052e+03 1.957461e+03 1.930899e-01 1.102412e+02 2.066654e+02 1.574091e+02 2.478473e+02 2.725937e+02 2.974560e+02 2.750459e+02 2.623355e+02 3.046525e+02 3.068477e+02 2.648242e+02 2.888976e+02 1.627531e-02
<GCONST> 3.362221e+02
<MIXTURE> 89 6.648632e-03
<MEAN> 39
 -6.814964e+01 -1.342851e+02 -1.164905e+02 -9.003845e+01 -1.277829e+02 8.355991e+01 2.154374e+02 -4.474634e+01 -6.231426e+01 2.873901e+01 -4.567124e+01 4.869373e+00 -8.192440e-01 -2.641770e+00 -4.142025e+01 -2.766518e+01 4.380951e+01 3.699693e+01 -2.960773e-01 1.126234e+01 4.380805e-01 -4.614603e+01 -8.409748e+00 1.663099e+01 6.094109e+00 6.463931e-02 5.352291e-01 1.315973e+01 5.941548e+00 4.448511e+00 7.143074e+00 -1.475317e+01 -2.066954e+01 3.648398e+00 8.958083e+00 -2.013631e+00 5.544963e+00 1.893620e+00 -9.544742e-02
<VARIANCE> 39
 9.427620e+03 8.132439e+03 7.039615e+03 1.381879e+04 1.254324e+04 1.624041e+04 1.156263e+04 1.565230e+04 2.053058e+04 1.036011e+04 1.200358e+04 9.990922e+03 1.465243e+00 3.197246e+02 5.679604e+02 6.051596e+02 1.160998e+03 1.047081e+03 1.730600e+03 1.354037e+03 1.783936e+03 1.378568e+03 1.438367e+03 1.113659e+03 1.007964e+03 4.496132e-02 4.079201e+01 7.633723e+01 9.314922e+01 1.393596e+02 1.754691e+02 2.064058e+02 1.956219e+02 2.386937e+02 3.059473e+02 2.218526e+02 2.370145e+02 2.016564e+02 1.219196e-02
<GCONST> 3.207966e+02
<MIXTURE> 90 6.802751e-03
<MEAN> 39
 -2.240619e+01 -5.933207e+01 -2.456299e+02 -4.816460e+01 -7.960404e+00 7.668259e+01 1.946893e+01 8.334074e+01 -3.196626e+01 1.227852e+01 1.351218e+01 -1.244063e+01 -1.112521e+00 -3.258193e+00 -1.447880e+01 4.169246e+00 7.541059e+00 7.466831e+00 1.132010e+01 -3.352714e+00 -2.045509e+00 -1.125916e+01 -1.607868e+01 -1.491278e+00 1.640561e+00 -2.457326e-02 1.141652e+00 2.138164e+00 2.074122e+00 6.441367e-01 -3.913614e+00 -5.656597e+00 -2.406791e+00 -1.773210e+00 5.392215e+00 -2.722071e-01 -5.605608e+00 -5.630435e+00 -1.369734e-02
<VARIANCE> 39
